<?xml version="1.0"?>
<opencv_storage>
<opencv_ml_svm>
  <format>3</format>
  <svmType>ONE_CLASS</svmType>
  <kernel>
    <type>RBF</type>
    <gamma>1.</gamma></kernel>
  <nu>5.0000000000000000e-01</nu>
  <term_criteria><iterations>100</iterations></term_criteria>
  <var_count>10</var_count>
  <class_count>1</class_count>
  <sv_total>46</sv_total>
  <support_vectors>
    <_>
      3.24994995e+02 -7.68153992e+01 -3.66273010e+02 1.85161991e+01
      1.04330002e+02 3.86270992e-02 -4.92380005e+02 6.01875000e+01
      2.06826996e+02 -3.07422009e+01</_>
    <_>
      6.86690979e+01 9.57131958e+00 -2.34088001e+01 3.09809995e+00
      -2.42996998e+01 5.76087013e-02 -4.25782013e+01 -4.79359016e+01
      -9.74678993e-01 2.04169011e+00</_>
    <_>
      6.53347015e+01 -2.53859005e+01 -1.24499998e+01 -6.25959015e+00
      -7.89271021e+00 1.30661994e-01 -4.64966011e+01 -6.95887029e-01
      -9.68080997e+00 7.40361977e+00</_>
    <_>
      6.86410980e+01 1.42185003e-01 -3.09561005e+01 1.10438995e+01
      -1.86201000e+01 5.52155003e-02 -4.43908997e+01 -3.08747997e+01
      1.89894998e+00 8.06999016e+00</_>
    <_>
      6.52671967e+01 -1.15878000e+01 -4.13459015e+01 1.97630005e+01
      -7.42328978e+00 5.70866987e-02 -3.52111015e+01 -2.03701000e+01
      5.84330988e+00 1.27973003e+01</_>
    <_>
      6.06324997e+01 -5.33788013e+00 -3.41596985e+01 1.32482004e+01
      -1.40753002e+01 5.69093004e-02 -3.50688019e+01 -2.51653996e+01
      3.73408008e+00 8.18743992e+00</_>
    <_>
      7.82935028e+01 7.45485020e+00 -2.41525002e+01 8.79872036e+00
      -3.03120995e+01 5.73739000e-02 -4.50704994e+01 -5.76753006e+01
      1.90851998e+00 -3.91724992e+00</_>
    <_>
      6.75024033e+01 -4.73820019e+00 -9.08796024e+00 1.89010000e+00
      -1.26566000e+01 6.11996986e-02 -3.14780006e+01 -4.90381012e+01
      2.08132992e+01 -1.89951000e+01</_>
    <_>
      6.77620010e+01 1.10112000e+01 -1.67441998e+01 1.62646997e+00
      -2.33644009e+01 5.83264008e-02 -4.39855995e+01 -4.88409996e+01
      6.57335997e+00 -1.03514996e+01</_>
    <_>
      7.35575027e+01 -1.26295996e+01 -3.65592003e+01 4.68885994e+00
      6.19370985e+00 5.75866997e-02 -4.33342018e+01 -2.36180997e+00
      -2.12574997e+01 1.02502003e+01</_>
    <_>
      6.75858002e+01 1.14763002e+01 -2.66061993e+01 -5.67888975e-01
      -1.92224998e+01 5.75335994e-02 -5.35662994e+01 -4.08273010e+01
      6.70852995e+00 -1.92923999e+00</_>
    <_>
      7.59757996e+01 9.76794004e-01 -2.01930008e+01 7.72574997e+00
      -2.22609997e+01 6.05538003e-02 -4.32066994e+01 -5.42882004e+01
      1.38717003e+01 -1.43640003e+01</_>
    <_>
      7.57296982e+01 2.53225994e+00 -1.66224003e+01 3.80991006e+00
      -2.35559006e+01 5.77122010e-02 -4.31991997e+01 -5.22383003e+01
      7.45304012e+00 -1.08121996e+01</_>
    <_>
      5.41365013e+01 -4.55775986e+01 -3.56657982e+01 1.50443001e+01
      2.67777996e+01 5.16677983e-02 -1.48573005e+00 3.31254997e+01
      -1.23745003e+01 1.17237997e+01</_>
    <_>
      7.10370026e+01 -4.62442017e+01 -1.57353001e+01 3.63471007e+00
      9.59405041e+00 1.24433003e-01 -2.12299995e+01 1.82124004e+01
      1.54684000e+01 -2.97675991e+00</_>
    <_>
      8.83688965e+01 3.23650002e+00 -3.98364983e+01 5.64722013e+00
      -2.65408993e+01 5.12829982e-02 -6.60663986e+01 -4.04635010e+01
      -8.59640026e+00 1.65608997e+01</_>
    <_>
      6.37808990e+01 -6.96036005e+00 -3.01650009e+01 1.75461998e+01
      -1.43092003e+01 5.97237013e-02 -3.53279991e+01 -2.56361008e+01
      4.93229008e+00 3.51546001e+00</_>
    <_>
      7.76773987e+01 2.07632999e+01 8.39962006e+00 -2.59905005e+00
      9.81817007e-01 9.55042988e-02 2.25188007e+01 -3.89793015e+01
      -1.21987000e+01 -1.54259002e+00</_>
    <_>
      8.73993988e+01 -9.16837025e+00 -3.54766998e+01 2.51300001e+00
      9.27367020e+00 6.09082989e-02 -4.24399986e+01 1.12869997e+01
      -3.95914993e+01 -9.17881012e+00</_>
    <_>
      7.53979034e+01 -1.42018003e+01 -3.05550003e+01 -1.91106999e+00
      1.12458000e+01 5.67090996e-02 -2.58192997e+01 6.60162020e+00
      -2.97035999e+01 1.33177996e+00</_>
    <_>
      7.35813980e+01 -3.65171013e+01 -2.09008999e+01 -1.23520002e+01
      2.94114995e+00 1.28325999e-01 -2.70566998e+01 1.70816004e+00
      4.87054014e+00 3.73820996e+00</_>
    <_>
      6.00287018e+01 -3.72920990e+01 1.74736004e+01 1.09212999e+01
      -9.83572960e+00 1.14329003e-01 1.28172998e+01 9.50111961e+00
      3.41090012e+00 -7.98706007e+00</_>
    <_>
      8.37370987e+01 -1.96587009e+01 -3.63530006e+01 3.14327002e-01
      9.21362972e+00 5.78178018e-02 -3.68134003e+01 4.63192987e+00
      -2.75370007e+01 5.97220993e+00</_>
    <_>
      6.38652000e+01 -1.32381001e+01 -2.83635998e+01 1.59313002e+01
      -1.69101009e+01 5.87797984e-02 -2.81800003e+01 -3.36921997e+01
      2.17148991e+01 2.07537995e-03</_>
    <_>
      5.62430992e+01 -2.20681992e+01 -3.85148010e+01 8.81260014e+00
      -1.40535998e+00 5.69320992e-02 -1.73876991e+01 -2.22756004e+00
      -1.09949999e+01 2.46977005e+01</_>
    <_>
      7.20904999e+01 4.22380018e+00 2.84654007e+01 6.24499989e+00
      -8.18762016e+00 9.74064022e-02 2.01982002e+01 -3.53717995e+01
      -1.01587000e+01 4.39357996e-01</_>
    <_>
      7.75386963e+01 1.67593994e+01 1.28548002e+01 3.84996009e+00
      -4.50229979e+00 9.20773968e-02 1.63883991e+01 -4.83324013e+01
      -7.91627979e+00 -3.50184989e+00</_>
    <_>
      6.95369034e+01 -1.23468995e+00 2.62322998e+01 1.64924994e-01
      -9.28490996e-01 9.84838977e-02 2.12446003e+01 -3.69707985e+01
      -9.94099045e+00 -5.58280993e+00</_>
    <_>
      7.25571976e+01 5.24105978e+00 2.09899998e+01 5.31147003e+00
      4.95980978e+00 9.84081030e-02 2.36212997e+01 -2.70415001e+01
      -1.87075005e+01 7.95855999e-01</_>
    <_>
      6.05763016e+01 5.93910980e+00 1.52102003e+01 3.26249003e+00
      -5.07574987e+00 9.58203971e-02 1.94328003e+01 -2.88153000e+01
      -8.77326965e+00 2.29596996e+00</_>
    <_>
      -2360930. 2906030. -280689. -354792. 9.03887969e+04 1.52794002e-02
      2530810. -2027090. 541849. -2.52824004e+04</_>
    <_>
      6.67957001e+01 -4.85677986e+01 4.60475016e+00 4.25791979e+00
      7.77558994e+00 1.20886996e-01 -1.20132995e+00 1.58246002e+01
      9.38175011e+00 -8.24726963e+00</_>
    <_>
      7.32500000e+01 -1.71257992e+01 -3.60056000e+01 4.51399994e+00
      5.80410004e+00 5.82754984e-02 -4.52559013e+01 5.77273989e+00
      -2.15650005e+01 1.03882999e+01</_>
    <_>
      6.53134995e+01 -5.08963013e+00 -3.95564995e+01 9.82968044e+00
      -1.00468998e+01 5.98153993e-02 -3.52528000e+01 -3.59828987e+01
      1.31786003e+01 8.99499035e+00</_>
    <_>
      7.24981995e+01 -5.76360016e+01 8.91950989e+00 -3.37276006e+00
      9.78518963e+00 1.18271999e-01 -3.24021006e+00 2.49624996e+01
      1.25223005e+00 -7.93616009e+00</_>
    <_>
      6.84900970e+01 8.69479999e-02 -2.37082996e+01 9.42234993e+00
      -1.68153992e+01 6.10507987e-02 -3.84894981e+01 -3.94953003e+01
      7.16335011e+00 -1.85519004e+00</_>
    <_>
      5.81341019e+01 -3.73662987e+01 -8.20820045e+00 -7.86718988e+00
      4.64863014e+00 1.23820998e-01 -9.11361980e+00 1.94792995e+01
      2.28920007e+00 2.61121988e+00</_>
    <_>
      7.46528015e+01 -3.45653000e+01 -4.77448997e+01 -9.50782013e+00
      2.77999001e+01 4.87254001e-02 -5.58602982e+01 1.34399996e+01
      4.42674017e+00 2.26991997e+01</_>
    <_>
      7.86652985e+01 -5.43333015e+01 2.77136993e+00 -5.61269999e-01
      9.90723038e+00 1.19842999e-01 -4.61531997e-01 3.02304993e+01
      3.97095990e+00 -9.18155956e+00</_>
    <_>
      7.24878006e+01 -1.32890999e+00 2.60921993e+01 -2.62879992e+00
      5.36650991e+00 9.70534012e-02 2.90926991e+01 -1.80249004e+01
      -1.95324993e+01 -1.42257996e+01</_>
    <_>
      6.61675034e+01 -3.36834002e+00 -2.84118996e+01 1.21462002e+01
      -1.90140991e+01 6.01551011e-02 -3.93473015e+01 -3.43833008e+01
      8.23964024e+00 2.82083988e+00</_>
    <_>
      6.96449966e+01 -1.59748001e+01 -4.41921997e+01 1.37994003e+01
      -1.41810000e+00 5.72086014e-02 -4.16165009e+01 -8.90732002e+00
      -4.89411020e+00 1.79340000e+01</_>
    <_>
      7.97796021e+01 -1.76156998e+01 -3.11853008e+01 3.84609014e-01
      7.57844019e+00 5.72022982e-02 -4.99709015e+01 2.38862991e+00
      -2.63348007e+01 8.50158024e+00</_>
    <_>
      8.06350021e+01 -1.29077997e+01 -4.59828987e+01 -2.20948994e-01
      -4.32352006e-01 5.46667986e-02 -6.53871994e+01 -9.85626030e+00
      -8.85807037e+00 2.39146996e+01</_>
    <_>
      8.05220032e+01 -1.47643995e+01 -4.77549019e+01 1.49926996e+01
      -7.29982996e+00 5.79808988e-02 -4.68334999e+01 -1.34118996e+01
      -1.34447002e+01 1.84109001e+01</_>
    <_>
      7.53739014e+01 -5.41755981e+01 3.04630995e+00 -1.68356001e+00
      8.47480965e+00 1.19883001e-01 -5.68073988e+00 2.78528004e+01
      6.00121021e+00 8.25205982e-01</_></support_vectors>
  <decision_functions>
    <_>
      <sv_count>46</sv_count>
      <rho>5.0000000000000000e-01</rho>
      <alpha>
        5.0000000000000000e-01 5.0000000000000000e-01
        5.0000000000000000e-01 5.0000000000000000e-01
        5.0000000000000000e-01 5.0000000000000000e-01
        5.0000000000000000e-01 5.0000000000000000e-01
        5.0000000000000000e-01 5.0000000000000000e-01
        5.0000000000000000e-01 5.0000000000000000e-01
        5.0000000000000000e-01 5.0000000000000000e-01
        5.0000000000000000e-01 5.0000000000000000e-01
        5.0000000000000000e-01 5.0000000000000000e-01
        5.0000000000000000e-01 5.0000000000000000e-01
        5.0000000000000000e-01 5.0000000000000000e-01
        5.0000000000000000e-01 5.0000000000000000e-01
        5.0000000000000000e-01 5.0000000000000000e-01
        5.0000000000000000e-01 5.0000000000000000e-01
        5.0000000000000000e-01 5.0000000000000000e-01
        5.0000000000000000e-01 5.0000000000000000e-01
        5.0000000000000000e-01 5.0000000000000000e-01
        5.0000000000000000e-01 5.0000000000000000e-01
        5.0000000000000000e-01 5.0000000000000000e-01
        5.0000000000000000e-01 5.0000000000000000e-01
        5.0000000000000000e-01 5.0000000000000000e-01
        5.0000000000000000e-01 5.0000000000000000e-01
        5.0000000000000000e-01 5.0000000000000000e-01</alpha></_></decision_functions></opencv_ml_svm>
</opencv_storage>
