<?xml version="1.0"?>
<opencv_storage>
<opencv_ml_svm>
  <format>3</format>
  <svmType>ONE_CLASS</svmType>
  <kernel>
    <type>RBF</type>
    <gamma>1.</gamma></kernel>
  <nu>5.0000000000000000e-01</nu>
  <term_criteria><iterations>100</iterations></term_criteria>
  <var_count>10</var_count>
  <class_count>1</class_count>
  <sv_total>46</sv_total>
  <support_vectors>
    <_>
      7.31186981e+01 -3.02717996e+00 -2.55037003e+01 1.82518005e+01
      -3.05002995e+01 5.79388998e-02 -3.55569000e+01 -3.84704018e+01
      -1.21205997e+01 9.83568954e+00</_>
    <_>
      5.61625000e+02 1.13497002e+02 -6.16184998e+02 -1.70619995e+02
      1.34960007e+02 4.00106981e-02 -8.88286987e+02 -1.98334000e+02
      2.88472992e+02 7.69131012e+01</_>
    <_>
      6.53786011e+01 -2.11112003e+01 -4.20690994e+01 1.71411991e+01
      -7.32217979e+00 5.70271984e-02 -2.93621998e+01 -7.29809999e+00
      -7.49174023e+00 2.36550007e+01</_>
    <_>
      5.94468994e+01 -1.78324997e+00 -2.48731995e+01 1.47896004e+01
      -1.89288006e+01 5.36672994e-02 -3.25149002e+01 -2.10666008e+01
      -2.74020004e+00 8.78372002e+00</_>
    <_>
      6.10247002e+01 -6.79372978e+00 -1.94689007e+01 1.62502995e+01
      -2.19894009e+01 5.96727990e-02 -2.73938007e+01 -2.88152008e+01
      3.05208993e+00 -4.10410023e+00</_>
    <_>
      6.13451004e+01 -2.14365997e+01 -3.87733994e+01 2.59885006e+01
      -1.11904001e+01 5.54009005e-02 -2.52394009e+01 -1.23632002e+01
      1.03964005e+01 1.34446001e+01</_>
    <_>
      1.18084999e+02 1.91009998e+01 -6.93259964e+01 -3.79676018e+01
      -7.21950006e+00 4.69628014e-02 -1.08802002e+02 -6.53236008e+01
      -1.39112997e+01 5.57156982e+01</_>
    <_>
      8.24412003e+01 8.74969959e+00 -2.23057995e+01 8.19172955e+00
      -3.84634018e+01 5.26501983e-02 -4.88629990e+01 -4.85199013e+01
      -1.78959007e+01 1.09525995e+01</_>
    <_>
      2.35056000e+02 6.64477005e+01 -2.03945999e+02 -1.09431000e+02
      3.53560982e+01 4.24293987e-02 -3.13234985e+02 -1.32367004e+02
      5.91935005e+01 7.67811966e+01</_>
    <_>
      6.73821030e+01 -2.66919003e+01 3.70010986e+01 3.14745998e+00
      7.73518026e-01 1.04534999e-01 2.00893993e+01 -9.41999972e-01
      -9.06396961e+00 -8.79808044e+00</_>
    <_>
      6.85766983e+01 -1.60590992e+01 -2.58262005e+01 2.02807999e+01
      -2.13880997e+01 5.53567000e-02 -2.93341007e+01 -3.26165009e+01
      2.24414997e+01 -8.00549984e+00</_>
    <_>
      6.57636032e+01 -6.90299988e+00 -2.53467007e+01 1.69333992e+01
      -2.00872993e+01 5.85771017e-02 -2.94916992e+01 -3.62864990e+01
      9.74297047e+00 7.16620982e-01</_>
    <_>
      8.50192032e+01 -7.60127008e-01 -3.80728989e+01 1.31240997e+01
      -2.85235996e+01 5.30392006e-02 -5.63381004e+01 -4.02050018e+01
      2.18583012e+00 6.82090998e+00</_>
    <_>
      6.78619995e+01 -4.08628006e+01 -1.68323002e+01 -8.49870968e+00
      1.15572996e+01 1.24624997e-01 -2.73966999e+01 2.32369003e+01
      -1.18302004e-02 1.85821998e+00</_>
    <_>
      6.41886978e+01 -3.27370987e+01 3.69370003e+01 1.81356001e+00
      8.45694005e-01 1.04920998e-01 1.15811996e+01 6.72177982e+00
      -7.26464987e+00 -8.36730957e+00</_>
    <_>
      1.27587997e+02 4.41782990e+01 -5.78538017e+01 -3.77871017e+01
      -3.33813019e+01 4.78379987e-02 -1.18002998e+02 -9.42773972e+01
      -2.48384991e+01 4.44230995e+01</_>
    <_>
      6.13264999e+01 -2.73425007e+01 -3.74393005e+01 2.67808990e+01
      2.52005011e-01 5.27063012e-02 -9.36353970e+00 1.56639004e+00
      -1.20888004e+01 1.74631004e+01</_>
    <_>
      8.77456970e+01 -2.94225006e+01 4.00769005e+01 9.36627007e+00
      2.50145006e+00 1.12494998e-01 2.10184002e+01 -9.68360043e+00
      -2.83974991e+01 -1.31759005e+01</_>
    <_>
      7.51274033e+01 -3.30461998e+01 3.46861000e+01 4.25451994e+00
      -7.30798006e+00 1.12613000e-01 2.14748993e+01 -2.02621002e+01
      -4.87507010e+00 -1.11222994e+00</_>
    <_>
      6.59937973e+01 -4.08100014e+01 2.31746006e+01 2.91208005e+00
      8.37036991e+00 1.14707001e-01 1.49416006e+00 1.62117004e+01
      1.17233002e+00 -1.12584000e+01</_>
    <_>
      8.28041992e+01 -4.03195000e+01 -1.62612991e+01 -2.25673008e+01
      1.04106998e+00 1.29612997e-01 -3.51442986e+01 6.86807013e+00
      -4.81512994e-01 2.22765994e+00</_>
    <_>
      6.93710022e+01 -4.26200981e+01 3.02267003e+00 9.42131042e+00
      2.39120007e+00 1.23225003e-01 -8.87926960e+00 1.88036995e+01
      2.35820999e+01 -8.23845959e+00</_>
    <_>
      8.12312012e+01 -4.86629982e+01 2.44057999e+01 1.49589005e+01
      5.54185009e+00 1.19949996e-01 1.67911005e+00 1.56216002e+01
      3.95436001e+00 -1.01694002e+01</_>
    <_>
      1.44427002e+02 2.74374008e+01 -9.87463989e+01 -5.35499992e+01
      6.23917007e+00 4.70415987e-02 -1.28289001e+02 -8.86290970e+01
      -4.91494989e+00 6.49562988e+01</_>
    <_>
      7.67578964e+01 -3.23381996e+01 2.60393009e+01 9.55031967e+00
      5.87482977e+00 1.05201997e-01 9.50549984e+00 1.40228996e+01
      -9.58481979e+00 -2.11795998e+01</_>
    <_>
      8.12865982e+01 -5.13611984e+01 -3.76002002e+00 -9.50487995e+00
      5.67101002e+00 1.24415003e-01 -1.37914000e+01 1.56775999e+01
      2.03670998e+01 2.46886992e+00</_>
    <_>
      8.59837036e+01 5.30749989e+00 2.90743999e+01 -6.25866985e+00
      -1.02042999e+01 9.63945016e-02 1.64195004e+01 -3.98324013e+01
      -1.23254995e+01 -1.88379002e+00</_>
    <_>
      9.11965027e+01 -1.31950998e+01 -3.90798988e+01 7.33294010e+00
      1.07620001e+01 6.14239015e-02 -4.61458015e+01 -2.64404011e+00
      -3.34273987e+01 4.79537010e+00</_>
    <_>
      8.69173965e+01 -9.86763000e+00 -3.70532990e+01 5.13240004e+00
      1.01592999e+01 6.17434010e-02 -4.02267990e+01 -6.79407978e+00
      -3.47324982e+01 7.08093023e+00</_>
    <_>
      7.16912003e+01 -4.39210014e+01 5.07792997e+00 4.87985992e+00
      9.51731014e+00 1.22668996e-01 -1.03367996e+01 1.83358994e+01
      2.48274002e+01 -1.04356003e+01</_>
    <_>
      8.15330963e+01 -4.53851013e+01 2.70417995e+01 1.87084999e+01
      -5.10422993e+00 1.15532003e-01 1.61924992e+01 -4.18904990e-01
      -9.99610007e-01 -9.92564964e+00</_>
    <_>
      7.64707031e+01 -1.15521002e+01 -4.03769989e+01 8.17873001e+00
      1.03885002e+01 6.06690012e-02 -1.87406006e+01 -8.14566040e+00
      -2.59048004e+01 6.60499001e+00</_>
    <_>
      6.49832993e+01 -3.74938011e+01 -1.08227997e+01 -3.16912007e+00
      -1.53293997e-01 1.24627002e-01 -1.24952002e+01 1.57238998e+01
      1.30418997e+01 -1.62776995e+00</_>
    <_>
      7.43665009e+01 -6.72616005e+00 -2.95151005e+01 5.17025995e+00
      -1.83808002e+01 5.45921996e-02 -4.69157982e+01 -2.18966999e+01
      -1.83747997e+01 2.60874996e+01</_>
    <_>
      6.78145981e+01 -4.80703011e+01 1.09335005e+00 -2.69152999e+00
      1.00990000e+01 1.19795002e-01 -8.83918953e+00 2.62378998e+01
      -1.37541997e+00 -5.62116003e+00</_>
    <_>
      7.09536972e+01 2.01874995e+00 -2.87152996e+01 1.30099001e+01
      -1.97728996e+01 5.60848005e-02 -4.50140991e+01 -3.15564003e+01
      -1.31186998e+00 2.83751011e+00</_>
    <_>
      6.54160004e+01 -1.40853004e+01 -2.64344997e+01 4.67155981e+00
      1.00753999e+00 5.71760014e-02 -3.44524002e+01 -2.90842009e+00
      -2.68372002e+01 2.00018997e+01</_>
    <_>
      6.70440979e+01 -1.77942009e+01 -3.77588005e+01 1.03171997e+01
      -3.45456004e+00 5.50450012e-02 -3.42624016e+01 -5.83118010e+00
      -9.60235977e+00 2.47646999e+01</_>
    <_>
      8.78483963e+01 -4.38741016e+00 3.30194016e+01 -2.80356007e+01
      3.53042006e+00 9.10556018e-02 1.49215002e+01 -2.50716000e+01
      -1.85685997e+01 8.05068016e+00</_>
    <_>
      7.95061035e+01 4.54288982e-02 3.07143993e+01 -1.06213999e+01
      -1.17438002e+01 9.27466005e-02 2.33292007e+01 -3.21505013e+01
      -1.19547005e+01 -1.33175001e+01</_>
    <_>
      6.19057007e+01 -6.96553993e+00 -2.46429996e+01 1.16084995e+01
      -1.30333004e+01 6.11553006e-02 -2.85090008e+01 -3.13696003e+01
      1.59932003e+01 -1.89666998e+00</_>
    <_>
      6.16773987e+01 -3.36515999e+01 -4.20541992e+01 7.16049004e+00
      1.79206009e+01 5.18034995e-02 -2.59864998e+01 1.59972000e+01
      -6.74379015e+00 2.81977005e+01</_>
    <_>
      7.78943024e+01 -2.00664997e+00 2.78833008e+01 -1.09885998e+01
      -1.17343998e+01 9.28224027e-02 2.06919003e+01 -3.09057999e+01
      -7.12913990e+00 -6.33352995e-01</_>
    <_>
      5.14015999e+01 -6.98807983e+01 -2.54619999e+01 1.68146992e+01
      3.60428009e+01 4.80610989e-02 3.83272004e+00 5.51962013e+01
      -8.11563969e+00 1.83827991e+01</_>
    <_>
      5.91464005e+01 -3.20644989e+01 -4.47365990e+01 1.35942001e+01
      1.70401001e+01 5.46635985e-02 -1.98055992e+01 1.52449999e+01
      -6.67330980e+00 2.69927006e+01</_>
    <_>
      7.56287994e+01 -5.11640015e+01 3.96937996e-01 -4.71733999e+00
      5.94596004e+00 1.20927997e-01 -5.56626987e+00 3.07595997e+01
      6.26240015e+00 -7.09107018e+00</_></support_vectors>
  <decision_functions>
    <_>
      <sv_count>46</sv_count>
      <rho>5.0000000000000000e-01</rho>
      <alpha>
        5.0000000000000000e-01 5.0000000000000000e-01
        5.0000000000000000e-01 5.0000000000000000e-01
        5.0000000000000000e-01 5.0000000000000000e-01
        5.0000000000000000e-01 5.0000000000000000e-01
        5.0000000000000000e-01 5.0000000000000000e-01
        5.0000000000000000e-01 5.0000000000000000e-01
        5.0000000000000000e-01 5.0000000000000000e-01
        5.0000000000000000e-01 5.0000000000000000e-01
        5.0000000000000000e-01 5.0000000000000000e-01
        5.0000000000000000e-01 5.0000000000000000e-01
        5.0000000000000000e-01 5.0000000000000000e-01
        5.0000000000000000e-01 5.0000000000000000e-01
        5.0000000000000000e-01 5.0000000000000000e-01
        5.0000000000000000e-01 5.0000000000000000e-01
        5.0000000000000000e-01 5.0000000000000000e-01
        5.0000000000000000e-01 5.0000000000000000e-01
        5.0000000000000000e-01 5.0000000000000000e-01
        5.0000000000000000e-01 5.0000000000000000e-01
        5.0000000000000000e-01 5.0000000000000000e-01
        5.0000000000000000e-01 5.0000000000000000e-01
        5.0000000000000000e-01 5.0000000000000000e-01
        5.0000000000000000e-01 5.0000000000000000e-01
        5.0000000000000000e-01 5.0000000000000000e-01</alpha></_></decision_functions></opencv_ml_svm>
</opencv_storage>
