<?xml version="1.0"?>
<opencv_storage>
<opencv_ml_svm>
  <format>3</format>
  <svmType>ONE_CLASS</svmType>
  <kernel>
    <type>RBF</type>
    <gamma>6.0000002384185791e-01</gamma></kernel>
  <nu>5.0000000000000000e-01</nu>
  <term_criteria><iterations>100</iterations></term_criteria>
  <var_count>10</var_count>
  <class_count>1</class_count>
  <sv_total>46</sv_total>
  <support_vectors>
    <_>
      4.75055008e+01 -4.09006996e+01 -4.73559990e+01 2.07565994e+01
      2.20890007e+01 5.28853983e-02 -1.35324001e+01 2.47994003e+01
      7.39891005e+00 2.59400005e+01</_>
    <_>
      5.82436981e+01 -4.35764980e+00 -1.54039001e+01 1.04791002e+01
      -2.37507992e+01 6.17298000e-02 -2.17929993e+01 -4.44038010e+01
      1.50838003e+01 -2.06767011e+00</_>
    <_>
      6.08852997e+01 -1.94733009e+01 -4.14907990e+01 2.13624001e+01
      -3.61992002e+00 5.83311990e-02 -2.88456993e+01 -5.13360023e+00
      -6.20201015e+00 1.80522995e+01</_>
    <_>
      5.10842018e+01 -6.92999005e-01 -9.74559975e+00 5.21283007e+00
      -1.64155998e+01 6.26918003e-02 -2.37381001e+01 -3.44081001e+01
      1.25937004e+01 -8.81093025e+00</_>
    <_>
      5.69518013e+01 -1.74680996e+01 -4.60490990e+01 1.90426998e+01
      -2.17769003e+00 5.72853982e-02 -2.62889996e+01 -9.93780041e+00
      4.32120991e+00 2.59162998e+01</_>
    <_>
      5.86399994e+01 -9.21918964e+00 -2.78988991e+01 1.68743992e+01
      -1.71305008e+01 5.83453998e-02 -3.09507999e+01 -2.40484009e+01
      8.91777039e+00 3.47849989e+00</_>
    <_>
      6.63163986e+01 -1.54098997e+01 -1.86543999e+01 9.58421040e+00
      -1.89512997e+01 6.10277988e-02 -2.38740997e+01 -4.72556992e+01
      2.51693993e+01 -2.06032991e+00</_>
    <_>
      6.39968987e+01 -1.46997004e+01 -3.16872005e+01 1.96735001e+01
      -2.02283001e+01 5.51248007e-02 -2.34412994e+01 -3.31171989e+01
      1.09684000e+01 8.65235996e+00</_>
    <_>
      6.71977005e+01 -2.52938008e+00 -3.10867996e+01 1.54980001e+01
      -2.76975002e+01 5.61861992e-02 -3.95158997e+01 -3.71719017e+01
      7.33130980e+00 7.63802004e+00</_>
    <_>
      6.89509964e+01 -1.74492002e+00 -3.74269981e+01 2.40921001e+01
      6.30077982e+00 6.48737028e-02 -2.46201000e+01 -9.95707035e+00
      -2.46714001e+01 -7.12917995e+00</_>
    <_>
      7.01018982e+01 -1.97967994e+00 -1.48378000e+01 4.29940987e+00
      -1.97852001e+01 5.96041009e-02 -3.88956985e+01 -4.83046989e+01
      2.02052994e+01 -1.46730003e+01</_>
    <_>
      5.32519989e+01 -2.20550003e+01 -3.39058990e+01 2.71431007e+01
      -1.20445004e+01 5.58793992e-02 -1.46099005e+01 -7.03579998e+00
      -4.40593004e+00 2.34445000e+01</_>
    <_>
      5.89253006e+01 -5.93158007e+00 -9.38607979e+00 1.49731004e+00
      -1.77663002e+01 6.25595003e-02 -2.41306000e+01 -4.44278984e+01
      2.06739006e+01 -9.58681965e+00</_>
    <_>
      5.70541992e+01 -3.35563011e+01 -3.79790001e+01 1.50159998e+01
      1.78430996e+01 5.56323007e-02 -1.26682997e+01 2.11040993e+01
      -1.45598001e+01 1.13191004e+01</_>
    <_>
      6.76098022e+01 -6.78771019e+00 -4.84254990e+01 1.55752001e+01
      1.16075001e+01 6.27695024e-02 -2.46112995e+01 -1.07921000e+01
      -1.47792997e+01 9.67187023e+00</_>
    <_>
      5.87160988e+01 1.08383000e+00 -4.31863022e+00 -5.40814018e+00
      -1.10861998e+01 6.40731007e-02 -2.72022991e+01 -4.93522987e+01
      2.51203995e+01 -1.67761993e+01</_>
    <_>
      6.28503990e+01 -9.76146984e+00 -1.12347002e+01 5.62193012e+00
      -1.36773996e+01 6.62531033e-02 -2.57012997e+01 -3.91108017e+01
      1.38241997e+01 -3.94149995e+00</_>
    <_>
      7.50840988e+01 -2.63345003e+00 1.86711006e+01 4.27606010e+00
      -8.39710045e+00 1.00782998e-01 2.41756992e+01 -3.86498985e+01
      -1.21677999e+01 7.70509005e+00</_>
    <_>
      7.10507965e+01 9.72869968e+00 -3.16959000e+01 1.58983002e+01
      1.39770002e+01 8.21620002e-02 1.50873003e+01 -2.74584007e+01
      -8.15869045e+00 1.90060005e-01</_>
    <_>
      6.82891006e+01 -3.29141006e+01 3.59171982e+01 9.22517967e+00
      -6.88361979e+00 1.06688000e-01 1.27151003e+01 -7.72063017e+00
      2.58633995e+00 -1.51587000e+01</_>
    <_>
      6.99427032e+01 -3.73512001e+01 3.12155991e+01 -5.62114000e+00
      -1.40726000e-01 1.09268002e-01 1.42610998e+01 9.68422031e+00
      7.94027996e+00 -1.07173004e+01</_>
    <_>
      7.43662033e+01 -2.08512993e+01 3.51632004e+01 1.52973003e+01
      -1.24568005e+01 1.05088003e-01 2.81121006e+01 -2.66089001e+01
      -1.31507003e+00 -7.07445002e+00</_>
    <_>
      7.34288025e+01 -8.40742016e+00 -4.03310013e+01 1.45466995e+01
      2.19443989e+00 6.69362992e-02 -4.94844007e+00 -1.43044996e+01
      -3.19867001e+01 1.25148997e-01</_>
    <_>
      7.76912994e+01 -2.23414001e+01 -1.69962997e+01 2.03055992e+01
      -2.81063004e+01 5.94316982e-02 -2.24801006e+01 -4.92729988e+01
      1.44006996e+01 -2.76038003e+00</_>
    <_>
      5.74146996e+01 2.41195011e+00 1.99097996e+01 5.44659996e+00
      -1.07676001e+01 9.37997028e-02 4.86556005e+00 -1.53885002e+01
      -1.04603004e+01 -1.04754000e+01</_>
    <_>
      6.53382034e+01 -2.10347004e+01 3.11811008e+01 7.84560013e+00
      -1.26362000e+01 1.07588999e-01 1.55517998e+01 -2.10627995e+01
      -1.84915996e+00 -8.37860966e+00</_>
    <_>
      7.12540970e+01 -2.92922993e+01 4.17160988e+01 -1.15459001e+00
      -7.09227991e+00 1.06299996e-01 2.15788994e+01 -1.63213997e+01
      6.88914013e+00 -4.57340002e+00</_>
    <_>
      7.68345032e+01 -2.47977009e+01 2.98162994e+01 1.05058002e+01
      -1.50298996e+01 1.02686003e-01 2.72563000e+01 -3.03581009e+01
      1.40781999e+00 1.48550999e+00</_>
    <_>
      7.76589966e+01 5.31468010e+00 2.60461006e+01 1.29041004e+01
      -1.14071999e+01 9.95260030e-02 1.86200008e+01 -3.65770988e+01
      -1.63691006e+01 6.61916018e+00</_>
    <_>
      6.01691017e+01 -2.22180004e+01 2.98267994e+01 4.98035002e+00
      -8.24689960e+00 1.04841001e-01 1.65403004e+01 -1.29323997e+01
      1.83479995e-01 -2.86312008e+00</_>
    <_>
      7.51778030e+01 -1.40830002e+01 -6.42398977e+00 1.51611004e+01
      7.66804981e+00 8.65703970e-02 2.16350002e+01 -4.61534996e+01
      1.47933998e+01 4.29805011e-01</_>
    <_>
      7.96362000e+01 -1.40460997e+01 4.99628019e+00 -1.26194000e+01
      -8.02678013e+00 9.07080024e-02 8.86697006e+00 -4.98199997e+01
      8.61308002e+00 1.35756998e+01</_>
    <_>
      5.76148987e+01 -4.49724998e+01 -2.86226997e+01 9.30772972e+00
      2.93402996e+01 5.39207011e-02 -9.38461971e+00 3.79872017e+01
      -1.57431002e+01 3.12631011e+00</_>
    <_>
      6.59961014e+01 -1.72999992e+01 -4.29098015e+01 8.03623009e+00
      -4.87387991e+00 5.30901998e-02 -3.15655994e+01 -1.63882008e+01
      -7.58802986e+00 3.30359001e+01</_>
    <_>
      1.36612999e+00 -1.23153999e+02 3.00515003e+01 5.13662987e+01
      5.39623985e+01 4.65967990e-02 1.03876999e+02 1.27152000e+02
      -1.83735001e+00 -4.70965996e+01</_>
    <_>
      6.96313019e+01 -9.03563023e+00 -3.04426994e+01 1.10626001e+01
      -1.98460999e+01 5.93456998e-02 -2.68603001e+01 -4.60848999e+01
      7.06807995e+00 1.32805004e+01</_>
    <_>
      7.38641968e+01 -5.10491982e+01 -1.55697002e+01 -4.57456017e+00
      6.96978998e+00 1.23825997e-01 -2.63812008e+01 2.34284000e+01
      3.82943988e-01 8.54872036e+00</_>
    <_>
      6.92175980e+01 2.35486007e+00 2.67838001e+00 2.08127995e+01
      -3.97437000e+00 1.38622999e-01 -5.48555984e+01 -3.38787007e+00
      -1.54728003e+01 -1.49182997e+01</_>
    <_>
      9.43357010e+01 4.21212006e+00 3.84934006e+01 -8.12061024e+00
      -2.36135006e+01 9.49776024e-02 1.53985996e+01 -3.86495018e+01
      -2.23075008e+01 -1.05420005e+00</_>
    <_>
      -3.04979004e+03 -2.48770004e+02 3.57141992e+03 1.83757996e+02
      -4.67924011e+02 3.42267007e-02 5.46195020e+03 2.72670013e+02
      -1.63494995e+03 -9.00985031e+01</_>
    <_>
      6.88264008e+01 1.11052999e+01 -7.30003023e+00 2.27040997e+01
      2.02190995e+00 1.36300996e-01 -5.47016983e+01 -1.32940998e+01
      -1.67407000e+00 -1.38260002e+01</_>
    <_>
      4.58653984e+01 -5.18264008e+01 -4.95313988e+01 1.86336002e+01
      3.35064011e+01 5.22403009e-02 3.83285999e+00 3.21430016e+01
      3.27810001e+00 2.90510998e+01</_>
    <_>
      7.80698013e+01 -1.84412994e+01 3.47069016e+01 6.81863022e+00
      -1.95636997e+01 1.01487003e-01 1.59166002e+01 -1.46983995e+01
      -8.68241978e+00 -9.83045006e+00</_>
    <_>
      6.83450012e+01 -4.87720985e+01 -6.57237015e+01 2.77539997e+01
      1.53064003e+01 5.42069003e-02 -1.24098997e+01 1.14498997e+01
      2.69270003e-01 3.88672981e+01</_>
    <_>
      -2.40879002e+01 -1.22801003e+02 2.12721004e+01 6.91265030e+01
      5.17515984e+01 4.59536016e-02 1.10129997e+02 1.33610001e+02
      6.69822979e+00 -2.56734009e+01</_>
    <_>
      8.79201965e+01 -7.16498017e-01 3.63022003e+01 5.37903023e+00
      -9.36050987e+00 9.71037969e-02 3.43742981e+01 -4.29328003e+01
      -5.19267988e+00 -1.84085999e+01</_></support_vectors>
  <decision_functions>
    <_>
      <sv_count>46</sv_count>
      <rho>5.0000000000000000e-01</rho>
      <alpha>
        5.0000000000000000e-01 5.0000000000000000e-01
        5.0000000000000000e-01 5.0000000000000000e-01
        5.0000000000000000e-01 5.0000000000000000e-01
        5.0000000000000000e-01 5.0000000000000000e-01
        5.0000000000000000e-01 5.0000000000000000e-01
        5.0000000000000000e-01 5.0000000000000000e-01
        5.0000000000000000e-01 5.0000000000000000e-01
        5.0000000000000000e-01 5.0000000000000000e-01
        5.0000000000000000e-01 5.0000000000000000e-01
        5.0000000000000000e-01 5.0000000000000000e-01
        5.0000000000000000e-01 5.0000000000000000e-01
        5.0000000000000000e-01 5.0000000000000000e-01
        5.0000000000000000e-01 5.0000000000000000e-01
        5.0000000000000000e-01 5.0000000000000000e-01
        5.0000000000000000e-01 5.0000000000000000e-01
        5.0000000000000000e-01 5.0000000000000000e-01
        5.0000000000000000e-01 5.0000000000000000e-01
        5.0000000000000000e-01 5.0000000000000000e-01
        5.0000000000000000e-01 5.0000000000000000e-01
        5.0000000000000000e-01 5.0000000000000000e-01
        5.0000000000000000e-01 5.0000000000000000e-01
        5.0000000000000000e-01 5.0000000000000000e-01
        5.0000000000000000e-01 5.0000000000000000e-01</alpha></_></decision_functions></opencv_ml_svm>
</opencv_storage>
