<?xml version="1.0"?>
<opencv_storage>
<opencv_ml_svm>
  <format>3</format>
  <svmType>ONE_CLASS</svmType>
  <kernel>
    <type>RBF</type>
    <gamma>1.</gamma></kernel>
  <nu>5.0000000000000000e-01</nu>
  <term_criteria><iterations>100</iterations></term_criteria>
  <var_count>10</var_count>
  <class_count>1</class_count>
  <sv_total>46</sv_total>
  <support_vectors>
    <_>
      6.85204010e+01 -2.83851004e+00 -2.87306995e+01 1.40960999e+01
      -1.87304993e+01 5.77717014e-02 -4.00773010e+01 -3.12208996e+01
      -7.25216007e+00 6.30913019e+00</_>
    <_>
      9.16564026e+01 2.85098991e+01 -3.23753014e+01 -1.27025995e+01
      -3.37417984e+01 5.34124002e-02 -7.34391022e+01 -7.12777023e+01
      -1.44827995e+01 2.16511993e+01</_>
    <_>
      7.33805008e+01 -9.99814034e+00 -4.39603004e+01 7.49981022e+00
      -5.90702009e+00 5.58876991e-02 -4.67219009e+01 -1.90951004e+01
      -9.93360996e+00 1.98544006e+01</_>
    <_>
      8.09880981e+01 1.97341003e+01 -2.88267994e+01 -8.58320045e+00
      -2.73992996e+01 5.25080003e-02 -6.53289032e+01 -5.39557991e+01
      -2.01625996e+01 1.97259007e+01</_>
    <_>
      5.77849998e+01 4.07812023e+00 -1.74535999e+01 6.12900019e+00
      -1.02791004e+01 6.31389990e-02 -3.67071991e+01 -3.65835991e+01
      8.33887959e+00 -7.25726986e+00</_>
    <_>
      6.17543983e+01 4.39476013e+00 -1.67460003e+01 1.01875000e+01
      -2.18225002e+01 5.89790009e-02 -3.51818008e+01 -3.51109009e+01
      -1.15234005e+00 5.42746007e-01</_>
    <_>
      6.71699982e+01 2.82359004e+00 -1.58903999e+01 1.05839005e+01
      -2.47157001e+01 6.01934008e-02 -3.66348991e+01 -4.47625999e+01
      1.06774998e+01 -8.80309963e+00</_>
    <_>
      7.98270035e+01 1.08148003e+01 -3.11004009e+01 -1.95881999e+00
      -2.52768993e+01 5.38914017e-02 -6.19967003e+01 -4.32734985e+01
      -1.43597002e+01 1.84799004e+01</_>
    <_>
      9.13639984e+01 2.49251003e+01 -3.16571999e+01 -1.43389997e+01
      -3.20760002e+01 5.17081991e-02 -7.48488998e+01 -6.40458984e+01
      -1.86959000e+01 2.45312004e+01</_>
    <_>
      7.87189026e+01 -1.09797001e+01 -2.62684994e+01 -6.76558018e+00
      8.88543034e+00 5.45490012e-02 -4.69748993e+01 3.80946994e+00
      -3.53059006e+01 1.16583002e+00</_>
    <_>
      7.85354004e+01 3.17898989e+00 -1.61158009e+01 1.31931000e+01
      -3.54275017e+01 5.63228987e-02 -4.38623009e+01 -5.28647003e+01
      2.57506990e+00 -7.42722988e+00</_>
    <_>
      6.82475967e+01 3.10122991e+00 -2.63519993e+01 1.21891003e+01
      -2.52714005e+01 5.70947006e-02 -3.92766991e+01 -4.06315002e+01
      -5.37907982e+00 1.17042999e+01</_>
    <_>
      6.55338974e+01 -4.21310997e+00 -2.32180996e+01 1.09977999e+01
      -1.96382008e+01 5.58070987e-02 -3.55026016e+01 -3.41962013e+01
      5.17044020e+00 3.41233993e+00</_>
    <_>
      6.67095032e+01 -2.86264992e+01 -7.60502005e+00 -8.57542992e+00
      9.27357018e-01 1.33398995e-01 -4.35884018e+01 1.95059001e-01
      -9.62942982e+00 8.28742981e+00</_>
    <_>
      6.89263992e+01 -3.95209999e+01 -9.76177025e+00 -1.18877001e+01
      5.04113007e+00 1.29692003e-01 -3.06425991e+01 -9.97618973e-01
      6.78163004e+00 1.85494995e+00</_>
    <_>
      7.66834030e+01 1.11894999e+01 -2.37507992e+01 3.60600996e+00
      -3.10559998e+01 5.35473004e-02 -5.57804985e+01 -4.78380013e+01
      -1.10683002e+01 8.83681965e+00</_>
    <_>
      5.99532013e+01 -3.22135010e+01 -3.54257011e+01 9.77462006e+00
      1.64361992e+01 4.99835983e-02 -1.34633999e+01 6.92374992e+00
      -1.53750000e+01 2.30095005e+01</_>
    <_>
      7.63963013e+01 1.29870996e+01 1.49171000e+01 1.46413004e+00
      -9.03201962e+00 9.64920968e-02 2.54904995e+01 -4.96245003e+01
      -1.50830002e+01 -8.86338997e+00</_>
    <_>
      7.56439972e+01 2.30685005e+01 6.20654002e-02 1.16331997e+01
      5.11004019e+00 9.11974013e-02 2.80034008e+01 -4.19938011e+01
      -1.58723001e+01 -4.71541977e+00</_>
    <_>
      7.31466980e+01 -5.25392990e+01 1.41927004e-01 -7.51599979e+00
      5.51945019e+00 1.25296995e-01 -1.44785004e+01 1.14306002e+01
      1.22834997e+01 -6.87095022e+00</_>
    <_>
      7.18804016e+01 -4.65382996e+01 -1.48235998e+01 -8.37701988e+00
      7.20712996e+00 1.22614004e-01 -1.85533009e+01 2.29957008e+01
      4.87138987e+00 -1.64212000e+00</_>
    <_>
      6.56569977e+01 5.04005003e+00 1.68159008e+01 5.46237993e+00
      -5.02348995e+00 9.48074982e-02 2.70072002e+01 -3.23125992e+01
      -7.49710989e+00 -4.48333979e+00</_>
    <_>
      8.62274017e+01 -1.90618000e+01 -4.12182007e+01 -1.42350003e-01
      3.09902000e+00 5.93383983e-02 -2.81711998e+01 1.14721000e+00
      -3.91796989e+01 1.20656996e+01</_>
    <_>
      6.82341003e+01 -3.27129006e+00 -1.51672001e+01 -4.44650984e+00
      -1.40432997e+01 6.07351996e-02 -3.73269005e+01 -5.18944016e+01
      2.04773006e+01 -3.86306000e+00</_>
    <_>
      6.86656036e+01 -3.29788017e+01 3.16142006e+01 1.16167002e+01
      -2.41389990e+00 1.01461999e-01 3.68909001e+00 7.75585985e+00
      -1.05498004e+00 -2.20328007e+01</_>
    <_>
      6.95626984e+01 1.17826996e+01 1.70956993e+01 2.36568999e+00
      -1.04748001e+01 9.25702974e-02 2.01798000e+01 -3.90856018e+01
      -8.17228031e+00 -4.31152010e+00</_>
    <_>
      7.32165985e+01 -2.89808989e+00 2.21014996e+01 1.04280005e+01
      -9.66524982e+00 9.84667018e-02 3.25112000e+01 -3.51609001e+01
      -7.12773991e+00 -1.31241999e+01</_>
    <_>
      7.17405014e+01 -6.86429024e+00 2.46306000e+01 4.37543011e+00
      -1.18063002e+01 9.93428975e-02 2.53687000e+01 -2.78551998e+01
      -1.58463001e+01 -2.09039998e+00</_>
    <_>
      7.39400024e+01 2.12110996e+00 2.55489998e+01 -1.36381996e+00
      -3.72659993e+00 9.52408016e-02 2.38806000e+01 -4.19883995e+01
      -1.30756998e+01 -9.94964027e+00</_>
    <_>
      5.94026985e+01 3.63814998e+00 1.82476006e+01 6.21738005e+00
      -4.38843012e+00 9.60699990e-02 2.32304001e+01 -3.22627983e+01
      -9.19686031e+00 -7.35780001e+00</_>
    <_>
      8.12085037e+01 -2.07347989e+00 -4.68148994e+01 1.90879002e+01
      -1.15383005e+00 6.53135031e-02 -2.56408997e+01 -1.90193996e+01
      -3.06982994e+01 -5.42812014e+00</_>
    <_>
      7.57810974e+01 8.25222969e+00 1.12061005e+01 -5.95626020e+00
      6.99073982e+00 8.75841007e-02 1.31767998e+01 -3.94333992e+01
      -5.06497002e+00 -2.65872985e-01</_>
    <_>
      6.97671967e+01 -1.40151997e+01 -2.85338001e+01 -4.85247999e-01
      -2.11760998e+00 5.83080985e-02 -4.47524986e+01 -3.13165998e+00
      -2.40466995e+01 1.48559999e+01</_>
    <_>
      8.24991989e+01 9.00751972e+00 -2.09058990e+01 6.06871986e+00
      -2.94431000e+01 5.61387986e-02 -5.46225014e+01 -4.71307983e+01
      -1.49582005e+01 3.88009000e+00</_>
    <_>
      6.67746964e+01 -4.36582985e+01 -3.44906998e+01 -6.37060022e+00
      2.76287003e+01 5.19602001e-02 -3.07129993e+01 2.31152000e+01
      -7.54515982e+00 1.29724998e+01</_>
    <_>
      5.79802017e+01 7.31380999e-01 -1.86233997e+01 1.03537998e+01
      -1.23190002e+01 6.19021989e-02 -3.54478989e+01 -3.33838005e+01
      7.27059984e+00 -7.63772011e+00</_>
    <_>
      6.72630997e+01 -5.99677992e+00 3.15912991e+01 1.29189997e+01
      -9.87621009e-01 9.84913036e-02 3.07259998e+01 -2.12458992e+01
      5.91046989e-01 -1.14158001e+01</_>
    <_>
      5.37215004e+01 -3.72551003e+01 -3.30611992e+01 9.62065983e+00
      1.90662994e+01 5.11000007e-02 -2.82117004e+01 2.62973003e+01
      -2.79943991e+00 1.56729002e+01</_>
    <_>
      8.25939026e+01 -1.04849997e+01 -3.30760994e+01 2.42639999e+01
      -2.54916992e+01 6.39891997e-02 -3.92257996e+01 -2.82129002e+01
      -2.19764004e+01 1.27672994e+00</_>
    <_>
      7.56343994e+01 -1.89994001e+00 -3.68764000e+01 1.39530001e+01
      -1.65415993e+01 6.18432015e-02 -5.11515007e+01 -2.15421009e+01
      -2.14382992e+01 6.50946999e+00</_>
    <_>
      6.65157013e+01 -1.00417004e+01 -2.88295994e+01 1.00247002e+01
      -1.26171999e+01 5.42591996e-02 -4.33767014e+01 -1.16371002e+01
      -1.55622997e+01 1.43396997e+01</_>
    <_>
      6.38815002e+01 -4.77089005e+01 -3.42602005e+01 -3.20654011e+00
      3.18402996e+01 4.86464985e-02 -3.02800999e+01 2.71926994e+01
      -2.32075000e+00 1.59055004e+01</_>
    <_>
      7.18382034e+01 -5.14653015e+01 1.16203003e+01 1.87907994e-01
      -8.89636993e-01 1.17388003e-01 1.21694002e+01 2.38276997e+01
      -3.51239991e+00 -1.04818001e+01</_>
    <_>
      6.94430008e+01 -2.69930992e+01 -3.75536003e+01 1.11563003e+00
      9.59047985e+00 5.26925996e-02 -4.60696983e+01 8.68939972e+00
      -1.56784000e+01 2.80610008e+01</_>
    <_>
      6.00819016e+01 -5.86720009e+01 -3.00890007e+01 4.38168001e+00
      3.35301018e+01 4.91865985e-02 -2.14860001e+01 4.20042000e+01
      -3.08273005e+00 9.93953037e+00</_>
    <_>
      8.04570999e+01 -4.12779999e+00 -3.24366989e+01 1.62908993e+01
      -1.87819996e+01 6.17078990e-02 -5.35723000e+01 -1.44608002e+01
      -3.13187008e+01 -3.77195001e-01</_></support_vectors>
  <decision_functions>
    <_>
      <sv_count>46</sv_count>
      <rho>5.0000000000000000e-01</rho>
      <alpha>
        5.0000000000000000e-01 5.0000000000000000e-01
        5.0000000000000000e-01 5.0000000000000000e-01
        5.0000000000000000e-01 5.0000000000000000e-01
        5.0000000000000000e-01 5.0000000000000000e-01
        5.0000000000000000e-01 5.0000000000000000e-01
        5.0000000000000000e-01 5.0000000000000000e-01
        5.0000000000000000e-01 5.0000000000000000e-01
        5.0000000000000000e-01 5.0000000000000000e-01
        5.0000000000000000e-01 5.0000000000000000e-01
        5.0000000000000000e-01 5.0000000000000000e-01
        5.0000000000000000e-01 5.0000000000000000e-01
        5.0000000000000000e-01 5.0000000000000000e-01
        5.0000000000000000e-01 5.0000000000000000e-01
        5.0000000000000000e-01 5.0000000000000000e-01
        5.0000000000000000e-01 5.0000000000000000e-01
        5.0000000000000000e-01 5.0000000000000000e-01
        5.0000000000000000e-01 5.0000000000000000e-01
        5.0000000000000000e-01 5.0000000000000000e-01
        5.0000000000000000e-01 5.0000000000000000e-01
        5.0000000000000000e-01 5.0000000000000000e-01
        5.0000000000000000e-01 5.0000000000000000e-01
        5.0000000000000000e-01 5.0000000000000000e-01
        5.0000000000000000e-01 5.0000000000000000e-01</alpha></_></decision_functions></opencv_ml_svm>
</opencv_storage>
