<?xml version="1.0"?>
<opencv_storage>
<opencv_ml_svm>
  <format>3</format>
  <svmType>ONE_CLASS</svmType>
  <kernel>
    <type>RBF</type>
    <gamma>1.</gamma></kernel>
  <nu>5.0000000000000000e-01</nu>
  <term_criteria><iterations>100</iterations></term_criteria>
  <var_count>10</var_count>
  <class_count>1</class_count>
  <sv_total>46</sv_total>
  <support_vectors>
    <_>
      7.05062027e+01 1.70264995e+00 -3.23792992e+01 5.49823999e+00
      -2.10916996e+01 5.77583015e-02 -4.53406982e+01 -3.37617989e+01
      -7.82404995e+00 1.52470999e+01</_>
    <_>
      7.12337036e+01 7.81622982e+00 -3.31624985e+01 7.82660007e+00
      -2.19241009e+01 5.60436994e-02 -5.13739014e+01 -3.88125992e+01
      2.04478002e+00 6.79579020e+00</_>
    <_>
      6.25279007e+01 1.19929004e+00 -3.39967003e+01 7.38253021e+00
      -1.24490995e+01 6.20083995e-02 -3.09841003e+01 -3.87018013e+01
      2.40614009e+00 1.03771000e+01</_>
    <_>
      6.40699997e+01 6.01742983e+00 -9.51898003e+00 3.04380000e-01
      -2.23652992e+01 6.03725985e-02 -3.18691006e+01 -4.81999016e+01
      7.45572996e+00 -8.67129040e+00</_>
    <_>
      6.82426987e+01 3.92628002e+00 -1.70363998e+01 3.04291010e+00
      -2.04195004e+01 6.24222010e-02 -3.08491993e+01 -5.35186005e+01
      6.52951002e+00 -4.13890982e+00</_>
    <_>
      5.69560013e+01 -1.23718004e+01 -3.58853989e+01 1.57650995e+01
      -9.29508972e+00 5.60198016e-02 -3.31358986e+01 -1.30473003e+01
      7.43987989e+00 1.23814001e+01</_>
    <_>
      7.42921982e+01 5.97537994e+00 -1.64206009e+01 -6.26398993e+00
      -1.64342003e+01 6.14595003e-02 -4.27388000e+01 -6.00261993e+01
      1.96464005e+01 -9.36830997e+00</_>
    <_>
      6.39296989e+01 6.73694992e+00 -2.16191998e+01 7.55536020e-01
      -1.80727997e+01 6.07954003e-02 -3.86707001e+01 -4.42524986e+01
      1.11883001e+01 1.70276999e-01</_>
    <_>
      6.07168007e+01 4.45863008e+00 -1.52845001e+01 5.71969986e-01
      -1.49078999e+01 5.82588986e-02 -3.26655006e+01 -4.00483017e+01
      9.34724998e+00 -3.52875996e+00</_>
    <_>
      6.69097977e+01 -3.60125008e+01 -2.05955009e+01 -5.49456978e+00
      1.60301991e+01 5.17667010e-02 -3.68198013e+01 2.82856007e+01
      -1.63152008e+01 -1.39751002e-01</_>
    <_>
      7.19857025e+01 5.11606979e+00 -2.78973007e+01 9.68192005e+00
      -2.34591007e+01 5.66678010e-02 -4.97187004e+01 -3.99205017e+01
      8.78880978e+00 -2.11987996e+00</_>
    <_>
      6.02761002e+01 2.30244994e+00 -2.20681000e+01 -1.18467003e-01
      -1.42653999e+01 6.10570014e-02 -3.44996986e+01 -3.89403000e+01
      1.00141001e+01 2.23568010e+00</_>
    <_>
      6.76970978e+01 1.69428997e+01 -2.27882004e+01 -4.33173990e+00
      -2.12301006e+01 5.65354005e-02 -4.96309013e+01 -4.56027985e+01
      -2.59686995e+00 6.61198997e+00</_>
    <_>
      7.48498993e+01 -8.94542027e+00 -4.93286018e+01 1.19548998e+01
      4.44571018e+00 5.84761985e-02 -4.81279984e+01 -7.22572994e+00
      -1.03245001e+01 9.69655991e+00</_>
    <_>
      6.87328033e+01 -9.31616974e+00 -4.47211990e+01 1.22602997e+01
      4.66426992e+00 5.98271005e-02 -3.51153984e+01 -1.03399000e+01
      -1.20556002e+01 6.79721022e+00</_>
    <_>
      6.77322998e+01 4.58052015e+00 -1.88519001e+01 2.75452995e+00
      -2.11102009e+01 5.75383008e-02 -4.20652008e+01 -4.37672997e+01
      1.10148001e+01 -7.61108017e+00</_>
    <_>
      5.69314003e+01 -9.73211002e+00 -3.89431000e+01 8.58561993e+00
      -2.07458997e+00 5.75002991e-02 -2.61779995e+01 -1.93560009e+01
      1.10904999e+01 1.64771996e+01</_>
    <_>
      8.08814011e+01 -1.29548998e+01 -2.57320004e+01 -6.28603983e+00
      -2.42423010e+00 6.15881011e-02 -5.34826012e+01 4.88819981e+00
      -3.26292000e+01 7.94093990e+00</_>
    <_>
      8.63523026e+01 -1.09238005e+01 -3.90326996e+01 -4.21973991e+00
      7.75474012e-01 6.00073002e-02 -4.51125984e+01 1.07577000e+01
      -3.07054005e+01 -8.27165985e+00</_>
    <_>
      7.53086014e+01 -1.67252998e+01 -3.49948006e+01 9.16067028e+00
      6.92348003e+00 5.88750988e-02 -3.77355995e+01 4.86839008e+00
      -2.54489002e+01 2.20950007e+00</_>
    <_>
      4.75250015e+01 -6.80456009e+01 -1.85925999e+01 1.89820004e+01
      3.44990997e+01 5.02245016e-02 1.11896000e+01 6.39224014e+01
      -8.23686981e+00 -4.86137009e+00</_>
    <_>
      6.72735977e+01 -4.68858004e+00 -3.22102013e+01 -4.62024003e-01
      2.77283001e+00 5.97204007e-02 -4.07359009e+01 6.11397982e-01
      -2.02775993e+01 8.22986007e-01</_>
    <_>
      7.94779968e+01 -1.55537004e+01 -2.78642006e+01 2.14770007e+00
      1.05462999e+01 5.84692992e-02 -2.00771999e+01 7.04878998e+00
      -4.28986015e+01 -2.14001989e+00</_>
    <_>
      5.69939995e+01 -1.42126999e+01 -2.63619995e+01 1.13429003e+01
      -1.28669004e+01 5.86197004e-02 -2.16147003e+01 -2.91977997e+01
      2.06420994e+01 1.92557001e+00</_>
    <_>
      6.13978004e+01 -1.41396999e+01 -3.54179001e+01 9.60066986e+00
      -1.02039003e+01 6.07407019e-02 -2.46009007e+01 -1.65877991e+01
      -6.76104021e+00 2.10993996e+01</_>
    <_>
      6.44710999e+01 -3.33615990e+01 1.67233009e+01 1.19131002e+01
      -1.29400998e-01 1.15526997e-01 9.91985989e+00 1.70016994e+01
      2.37424994e+00 -7.13656998e+00</_>
    <_>
      7.70009995e+01 6.67479992e-01 -3.54701996e+01 1.16869001e+01
      -5.12357998e+00 6.43642992e-02 -4.41445999e+01 -1.23318005e+01
      -2.43015995e+01 8.38415027e-01</_>
    <_>
      7.84585037e+01 -1.13069000e+01 -2.24486008e+01 -8.82911968e+00
      8.54240036e+00 5.65335006e-02 -3.94541016e+01 7.60923004e+00
      -3.25985985e+01 -2.12121010e+00</_>
    <_>
      7.30516968e+01 9.59393024e+00 -3.40747986e+01 1.48263998e+01
      -6.87851000e+00 6.58691004e-02 -5.02897987e+01 -1.28178997e+01
      -2.17959003e+01 -8.32069969e+00</_>
    <_>
      6.19874992e+01 -4.89521980e+00 2.59691010e+01 9.37125969e+00
      -3.47434998e-01 1.03050001e-01 2.97891006e+01 -2.34857006e+01
      -7.23429024e-01 -5.19761026e-01</_>
    <_>
      6.62370987e+01 -2.45471992e+01 2.74169998e+01 8.50518990e+00
      -6.60855007e+00 1.11256003e-01 2.10587997e+01 -2.31511998e+00
      -6.22819996e+00 -8.10002041e+00</_>
    <_>
      5.98039017e+01 -2.61156998e+01 2.00666008e+01 1.39350004e+01
      -9.88296986e+00 1.09693997e-01 1.67343998e+01 3.96783996e+00
      3.31225991e+00 -9.86970043e+00</_>
    <_>
      7.66959991e+01 -1.03353996e+01 -4.95886993e+01 1.52601995e+01
      5.98706007e+00 6.17053993e-02 -3.98045006e+01 -5.88487005e+00
      -1.60161991e+01 1.12636003e+01</_>
    <_>
      7.15625992e+01 -2.37328005e+00 -3.01702995e+01 1.39137001e+01
      -2.24358006e+01 5.84166013e-02 -4.35102997e+01 -3.02105007e+01
      -4.96295977e+00 6.48097992e+00</_>
    <_>
      8.13809967e+01 -1.71931992e+01 -4.85667992e+01 1.62858009e+01
      4.57304001e+00 5.95499016e-02 -4.07020988e+01 -3.76959991e+00
      -2.18757000e+01 1.74449997e+01</_>
    <_>
      6.79971008e+01 4.35836983e+00 -2.92105007e+01 9.48456955e+00
      -2.27514000e+01 6.00198992e-02 -4.83446007e+01 -3.20280991e+01
      3.25240999e-01 3.35312009e+00</_>
    <_>
      7.31648026e+01 -4.80907011e+00 -3.80521011e+01 5.51511002e+00
      1.96807003e+00 6.03385009e-02 -4.85359993e+01 -1.07650995e+01
      -1.52166004e+01 1.13121996e+01</_>
    <_>
      7.56246033e+01 6.22464991e+00 -3.02605991e+01 8.09801006e+00
      -2.38887005e+01 5.99937998e-02 -5.35498009e+01 -3.52938995e+01
      -1.03803997e+01 6.90770006e+00</_>
    <_>
      8.15587997e+01 -1.41104002e+01 -4.92598991e+01 1.02941999e+01
      7.86076021e+00 6.01278991e-02 -5.57403984e+01 5.67489982e-01
      -1.76429996e+01 8.73517036e+00</_>
    <_>
      7.57875977e+01 -2.40722008e+01 -4.45783997e+01 8.45899963e+00
      1.81473999e+01 5.51992990e-02 -4.55887985e+01 1.49172001e+01
      -1.50250998e+01 8.73810959e+00</_>
    <_>
      7.48229980e+01 -7.42659998e+00 -3.72648010e+01 1.03723001e+01
      -1.71779003e+01 5.58679998e-02 -5.35187988e+01 -2.03969002e+01
      -7.33648014e+00 1.63922005e+01</_>
    <_>
      7.31607971e+01 -1.29916000e+01 -4.37205009e+01 9.58576965e+00
      -5.69411993e+00 5.75122982e-02 -4.62759018e+01 -1.04642000e+01
      -8.69163036e+00 1.91548996e+01</_>
    <_>
      7.69564972e+01 -8.06190968e+00 -4.34575996e+01 4.65570021e+00
      8.09051991e+00 5.89595996e-02 -4.75130005e+01 -7.14018011e+00
      -1.31634998e+01 7.13641977e+00</_>
    <_>
      7.98618011e+01 -3.41632004e+01 -4.50368996e+01 8.32843018e+00
      5.76975012e+00 5.30483015e-02 -6.21156998e+01 1.67844009e+01
      -9.16788960e+00 2.34596004e+01</_>
    <_>
      6.17513008e+01 -4.44124985e+01 -4.43713989e+01 1.45656996e+01
      2.59239006e+01 5.28242998e-02 -3.12070999e+01 3.41315002e+01
      -6.20328009e-01 1.44190998e+01</_>
    <_>
      8.77657013e+01 -5.68461990e+00 -4.40702019e+01 1.14862003e+01
      -1.24853001e+01 6.33625984e-02 -6.01036987e+01 -2.10942993e+01
      -1.88448009e+01 1.45699997e+01</_></support_vectors>
  <decision_functions>
    <_>
      <sv_count>46</sv_count>
      <rho>5.0000000000000000e-01</rho>
      <alpha>
        5.0000000000000000e-01 5.0000000000000000e-01
        5.0000000000000000e-01 5.0000000000000000e-01
        5.0000000000000000e-01 5.0000000000000000e-01
        5.0000000000000000e-01 5.0000000000000000e-01
        5.0000000000000000e-01 5.0000000000000000e-01
        5.0000000000000000e-01 5.0000000000000000e-01
        5.0000000000000000e-01 5.0000000000000000e-01
        5.0000000000000000e-01 5.0000000000000000e-01
        5.0000000000000000e-01 5.0000000000000000e-01
        5.0000000000000000e-01 5.0000000000000000e-01
        5.0000000000000000e-01 5.0000000000000000e-01
        5.0000000000000000e-01 5.0000000000000000e-01
        5.0000000000000000e-01 5.0000000000000000e-01
        5.0000000000000000e-01 5.0000000000000000e-01
        5.0000000000000000e-01 5.0000000000000000e-01
        5.0000000000000000e-01 5.0000000000000000e-01
        5.0000000000000000e-01 5.0000000000000000e-01
        5.0000000000000000e-01 5.0000000000000000e-01
        5.0000000000000000e-01 5.0000000000000000e-01
        5.0000000000000000e-01 5.0000000000000000e-01
        5.0000000000000000e-01 5.0000000000000000e-01
        5.0000000000000000e-01 5.0000000000000000e-01
        5.0000000000000000e-01 5.0000000000000000e-01</alpha></_></decision_functions></opencv_ml_svm>
</opencv_storage>
