<?xml version="1.0"?>
<opencv_storage>
<opencv_ml_svm>
  <format>3</format>
  <svmType>ONE_CLASS</svmType>
  <kernel>
    <type>RBF</type>
    <gamma>2.0000000298023224e-01</gamma></kernel>
  <nu>4.0000000596046448e-01</nu>
  <term_criteria><iterations>100</iterations></term_criteria>
  <var_count>10</var_count>
  <class_count>1</class_count>
  <sv_total>46</sv_total>
  <support_vectors>
    <_>
      6.18350983e+01 -1.12300997e+01 -3.60628014e+01 1.63612003e+01
      -4.24670982e+00 5.66097014e-02 -3.77540016e+01 -1.09755001e+01
      -2.41509008e+00 1.42438002e+01</_>
    <_>
      1.00918999e+02 1.08736000e+01 -6.08983002e+01 -1.71385994e+01
      -4.49530983e+00 4.97245006e-02 -9.79845963e+01 -4.13782005e+01
      -5.63684988e+00 3.50455017e+01</_>
    <_>
      5.72022018e+01 -3.40232010e+01 -5.10297012e+01 2.18813000e+01
      1.54164000e+01 5.46563007e-02 -3.12807999e+01 1.99405003e+01
      5.20339012e+00 1.80790005e+01</_>
    <_>
      6.26102982e+01 1.33339005e+01 -2.40597992e+01 2.61171007e+00
      -1.58162003e+01 5.80832995e-02 -4.80393982e+01 -3.78177986e+01
      2.07650995e+00 3.01939988e+00</_>
    <_>
      6.64558029e+01 -2.35590000e+01 -3.89914017e+01 4.60059023e+00
      1.43303003e+01 4.84105982e-02 -4.09776993e+01 5.56479979e+00
      -7.09801006e+00 2.14717007e+01</_>
    <_>
      6.40807037e+01 7.62763977e+00 -2.33539009e+01 1.82612002e+00
      -1.30414000e+01 6.12104014e-02 -4.15014992e+01 -4.31804008e+01
      8.88681984e+00 2.56335998e+00</_>
    <_>
      6.19990005e+01 1.05124998e+01 -8.23738956e+00 -1.73699006e-01
      -1.48575001e+01 6.14781007e-02 -3.65107994e+01 -4.68036003e+01
      1.14870005e+01 -1.27181997e+01</_>
    <_>
      5.97434006e+01 7.06515980e+00 -2.35916004e+01 6.02235985e+00
      -1.47362003e+01 5.91711998e-02 -3.89473991e+01 -3.79718018e+01
      7.00681019e+00 3.58950996e+00</_>
    <_>
      6.71495972e+01 7.37430990e-01 -2.57273006e+01 7.48704004e+00
      -1.26899996e+01 5.65968007e-02 -4.80844994e+01 -3.60421982e+01
      1.84549007e+01 -5.23604012e+00</_>
    <_>
      6.37354012e+01 -4.47154007e+01 1.25458002e+01 8.06960011e+00
      -5.95265007e+00 1.17541999e-01 6.75798988e+00 1.81193008e+01
      1.08052998e+01 -1.56976004e+01</_>
    <_>
      8.92021027e+01 9.89723969e+00 -4.30565987e+01 1.24141002e+00
      -2.11648998e+01 5.19847013e-02 -7.96804962e+01 -4.03880997e+01
      -5.72303009e+00 1.65597992e+01</_>
    <_>
      6.21096992e+01 4.16474009e+00 -2.09780006e+01 2.48000002e+00
      -1.26499004e+01 6.19743988e-02 -3.31180992e+01 -4.38255005e+01
      1.22076998e+01 1.95466006e+00</_>
    <_>
      9.38181992e+01 1.63805008e+01 -5.41626015e+01 -1.26134996e+01
      -8.91186047e+00 4.96557988e-02 -9.80727997e+01 -4.01271019e+01
      -2.52535009e+00 2.25116997e+01</_>
    <_>
      6.52741013e+01 -4.72122993e+01 -7.38292980e+00 -2.48912001e+00
      6.92102003e+00 1.22658998e-01 -9.62675953e+00 1.55676003e+01
      9.79741955e+00 -3.83001995e+00</_>
    <_>
      5.68630981e+01 -3.88604012e+01 1.36622000e+01 3.83318996e+00
      1.83132005e+00 1.17891997e-01 5.36593008e+00 1.40951996e+01
      1.30642996e+01 -7.13429022e+00</_>
    <_>
      7.49720001e+01 1.42487001e+01 -1.96182995e+01 6.94567978e-01
      -2.62654991e+01 5.72380014e-02 -4.91973000e+01 -5.75741997e+01
      5.39374018e+00 -1.98874995e-01</_>
    <_>
      6.23908997e+01 -6.91368008e+00 3.81103992e+00 6.72484016e+00
      -9.23571968e+00 1.34103999e-01 -4.16148987e+01 -1.08821001e+01
      -1.41484003e+01 -3.92052007e+00</_>
    <_>
      7.51327972e+01 3.31501007e+01 -1.49385996e+01 1.57447004e+00
      1.18929005e+01 8.73268992e-02 3.80364990e+00 -3.16025009e+01
      -3.59697008e+00 -7.95631981e+00</_>
    <_>
      8.64281998e+01 -1.79585991e+01 -3.32425003e+01 -3.12532997e+00
      1.14216003e+01 5.72600998e-02 -4.72588005e+01 1.22883997e+01
      -2.26198006e+01 -1.25532999e+01</_>
    <_>
      6.41807022e+01 -3.40060997e+01 3.37148018e+01 1.01250000e+01
      -2.71123004e+00 1.12271003e-01 1.09687004e+01 4.75915003e+00
      4.69560003e+00 -1.05976000e+01</_>
    <_>
      7.17603989e+01 -1.67719002e+01 -3.66281013e+01 1.74127998e+01
      4.15417004e+00 5.87848015e-02 -3.21189003e+01 7.39082024e-02
      -2.07297993e+01 7.10327005e+00</_>
    <_>
      7.47687988e+01 -1.39320002e+01 -2.59712009e+01 -1.00365000e+01
      2.58289003e+00 5.78574985e-02 -4.89987984e+01 2.97195005e+00
      -2.60730991e+01 9.35723972e+00</_>
    <_>
      7.40794983e+01 -2.54363995e+01 3.78437996e+01 1.94806004e+01
      -2.39276004e+00 1.11389004e-01 1.46059999e+01 -8.94503021e+00
      -9.28728962e+00 -1.43753996e+01</_>
    <_>
      6.48442993e+01 -4.85224009e+00 -1.73808994e+01 9.08773994e+00
      -1.26035004e+01 6.09056018e-02 -3.33553009e+01 -3.63517990e+01
      1.71900997e+01 -8.38195992e+00</_>
    <_>
      -4.59093994e+02 -3.47794006e+02 5.93703979e+02 3.03011993e+02
      -8.45392990e+01 3.63694988e-02 9.10976013e+02 4.21100006e+02
      -2.61537994e+02 -1.54884995e+02</_>
    <_>
      6.31015015e+01 -1.26750002e+01 -2.80743008e+01 4.50132990e+00
      5.06982994e+00 5.96032999e-02 -3.30992012e+01 2.72849011e+00
      -2.08117008e+01 4.33076000e+00</_>
    <_>
      3.17054005e+01 -9.85083008e+01 4.52082014e+00 1.78486004e+01
      4.84529991e+01 4.91603985e-02 3.02404003e+01 7.56028976e+01
      1.30813999e+01 -1.51934996e+01</_>
    <_>
      8.17400970e+01 -8.27336979e+00 -4.08241997e+01 3.32698011e+00
      1.35271001e+00 6.16577007e-02 -5.38348007e+01 1.70153999e+00
      -2.40685005e+01 -2.35523009e+00</_>
    <_>
      8.61380005e+01 -1.99454994e+01 -1.93073997e+01 -1.73871994e+01
      6.70697021e+00 5.41031994e-02 -5.30630989e+01 6.80289984e+00
      -3.16735992e+01 -2.98676994e-02</_>
    <_>
      7.78833008e+01 2.78481007e+01 -2.96364999e+00 -9.66460037e+00
      1.31014996e+01 8.60385969e-02 3.84459996e+00 -4.01781998e+01
      -4.50574017e+00 1.37620997e+00</_>
    <_>
      6.97136002e+01 -4.20526981e+00 2.88647003e+01 -2.12434006e+00
      2.86359996e-01 1.01604998e-01 1.91331005e+01 -3.18547993e+01
      -1.36718998e+01 5.36787987e+00</_>
    <_>
      5.99748993e+01 3.56584001e+00 1.83066006e+01 -2.54411006e+00
      -3.89631003e-01 9.66179967e-02 1.14768000e+01 -3.07150993e+01
      -1.19651003e+01 7.18032980e+00</_>
    <_>
      7.25026016e+01 -4.30735016e+01 2.95911999e+01 1.05553999e+01
      -5.92727995e+00 1.13277003e-01 1.49765997e+01 1.37257996e+01
      -5.69615984e+00 -5.20704985e+00</_>
    <_>
      6.90873032e+01 -4.25700998e+00 -3.42901001e+01 1.14748001e+01
      -1.45749998e+01 5.73154017e-02 -4.52901993e+01 -2.59780998e+01
      -5.51852989e+00 1.60678005e+01</_>
    <_>
      7.92684021e+01 -5.88277016e+01 -5.24600983e-01 -5.20523024e+00
      7.74956989e+00 1.21289000e-01 -5.43466997e+00 2.74936008e+01
      2.62079000e+00 -4.69610977e+00</_>
    <_>
      7.03348007e+01 7.52928019e-01 -3.46343002e+01 1.48634996e+01
      -1.67078991e+01 5.93106002e-02 -5.14117012e+01 -2.68306999e+01
      -4.20347005e-01 7.07922983e+00</_>
    <_>
      7.78038025e+01 1.37467003e+01 2.45937996e+01 7.39681005e+00
      -7.82882977e+00 9.60924029e-02 3.10876999e+01 -3.21445007e+01
      -1.53212004e+01 -8.46092987e+00</_>
    <_>
      6.80532990e+01 -1.02592001e+01 -4.71899986e+01 1.43427000e+01
      -6.23102999e+00 5.88775016e-02 -4.17733994e+01 -1.78271008e+01
      -3.19277000e+00 1.91065998e+01</_>
    <_>
      7.71278992e+01 -1.00221004e+01 3.52728996e+01 -3.18996000e+00
      -1.21256995e+00 1.01001002e-01 3.57197990e+01 -2.31495991e+01
      -1.73394001e+00 -1.80804005e+01</_>
    <_>
      7.83515015e+01 -5.55419998e+01 -6.97335005e+00 -5.31360984e-01
      1.22530003e+01 1.22419998e-01 -1.92250004e+01 2.58040009e+01
      6.18908024e+00 -8.94005013e+00</_>
    <_>
      7.10420990e+01 1.00083005e+00 -3.78642006e+01 1.58675003e+01
      -1.61355000e+01 5.98209016e-02 -5.07438011e+01 -2.86522999e+01
      -1.93333006e+00 9.26142025e+00</_>
    <_>
      7.11293030e+01 -1.67830009e+01 -4.84668999e+01 7.36780977e+00
      7.63309002e+00 5.63078001e-02 -4.79748993e+01 -2.03385997e+00
      -8.79222012e+00 2.07078991e+01</_>
    <_>
      7.63284988e+01 -3.74558985e-01 2.38917007e+01 8.16685963e+00
      5.92082024e-01 1.02862999e-01 4.13511009e+01 -3.22416000e+01
      -9.87790012e+00 -1.82887993e+01</_>
    <_>
      8.47563019e+01 -9.21195984e-01 -3.89714012e+01 8.89579010e+00
      -2.24610004e+01 5.83738983e-02 -6.05031013e+01 -2.98437004e+01
      -2.50669994e+01 2.27605000e+01</_>
    <_>
      7.43757019e+01 4.99901009e+00 -3.84777985e+01 9.08341026e+00
      -1.61744003e+01 6.32892996e-02 -5.05760002e+01 -3.07978992e+01
      -1.70664005e+01 8.80704021e+00</_>
    <_>
      7.43243027e+01 -6.67913008e+00 2.87959995e+01 4.30807018e+00
      -1.36723995e+00 1.01737000e-01 3.66940002e+01 -2.86597004e+01
      -4.89423007e-01 -1.46835003e+01</_></support_vectors>
  <decision_functions>
    <_>
      <sv_count>46</sv_count>
      <rho>4.0016776254819819e-01</rho>
      <alpha>
        4.0624999999994937e-01 3.9843750938275735e-01
        4.0625000002781497e-01 3.9889297559511216e-01
        3.9859007097834670e-01 3.9859000243867104e-01
        4.0625000000000133e-01 4.0624992516001146e-01
        3.9892890508291712e-01 3.9892890508291712e-01
        3.9859007097834698e-01 4.0624999961005781e-01
        3.9859007097834698e-01 3.9843750938965961e-01
        3.9892890508291712e-01 3.9859007229392585e-01
        3.9859007097834698e-01 3.9843750938968514e-01
        4.0000027418136597e-01 3.9843750938965961e-01
        3.9889076277598096e-01 3.9859007097834703e-01
        3.9859007097834703e-01 3.9843750938275735e-01
        3.9843750938965961e-01 3.9843750938275735e-01
        3.9859007097834670e-01 3.9859007097834698e-01
        3.9889297559511683e-01 3.9859007097834703e-01
        3.9889076277598096e-01 4.0234375403708966e-01
        3.9889297559511683e-01 3.9843750804636091e-01
        3.9843750938965961e-01 3.9514139317357855e-01
        3.9843750938275735e-01 3.9843750938968514e-01
        3.9859007097834326e-01 4.0625000002781497e-01
        3.9513965174562982e-01 3.9889297559511683e-01
        3.9899799256819879e-01 4.0625000000012762e-01
        4.0234375403708966e-01 4.0624999999999800e-01</alpha></_></decision_functions></opencv_ml_svm>
</opencv_storage>
