<?xml version="1.0"?>
<opencv_storage>
<opencv_ml_svm>
  <format>3</format>
  <svmType>ONE_CLASS</svmType>
  <kernel>
    <type>RBF</type>
    <gamma>8.0000001192092896e-01</gamma></kernel>
  <nu>5.0000000000000000e-01</nu>
  <term_criteria><iterations>100</iterations></term_criteria>
  <var_count>10</var_count>
  <class_count>1</class_count>
  <sv_total>46</sv_total>
  <support_vectors>
    <_>
      6.12566986e+01 -2.35303001e+01 -4.14844017e+01 1.43301001e+01
      -5.54405022e+00 5.41459993e-02 -2.67024002e+01 -5.21999979e+00
      -5.15241003e+00 2.55590000e+01</_>
    <_>
      6.88989029e+01 9.18729976e-03 -2.90356998e+01 1.08879995e+01
      -1.93670998e+01 5.82164004e-02 -4.49225998e+01 -3.92294006e+01
      1.01959000e+01 -1.88585997e+00</_>
    <_>
      9.80638981e+00 -1.07407997e+02 9.68229961e+00 4.53662987e+01
      4.79990997e+01 4.58322987e-02 5.86954002e+01 1.11686996e+02
      1.85713005e+00 -1.95324993e+01</_>
    <_>
      4.76035004e+01 -2.40683007e+00 -1.48831999e+00 -9.58203983e+00
      -2.13477993e+00 6.60543963e-02 -2.18062000e+01 -3.53953018e+01
      1.52999001e+01 -5.80083990e+00</_>
    <_>
      6.41838989e+01 -2.76008010e+00 -2.54515991e+01 1.17761002e+01
      -2.05512009e+01 5.84327988e-02 -3.38970985e+01 -3.13731995e+01
      -7.60928988e-01 2.44717002e+00</_>
    <_>
      5.39943008e+01 -3.77833009e+00 -2.10303993e+01 1.14951000e+01
      -1.48978004e+01 5.95480986e-02 -2.82231998e+01 -2.88558998e+01
      8.37635040e+00 -2.03680992e+00</_>
    <_>
      6.91458969e+01 -6.63950014e+00 -2.38365002e+01 1.77334003e+01
      -2.40312996e+01 5.81547990e-02 -3.64315987e+01 -4.22149010e+01
      1.56332998e+01 -8.79508018e+00</_>
    <_>
      6.47833023e+01 1.57354999e+00 -1.54420996e+01 3.81018996e+00
      -1.34973001e+01 6.20105006e-02 -3.76254997e+01 -4.69058990e+01
      1.66126003e+01 -1.35334997e+01</_>
    <_>
      8.36010971e+01 2.28504009e+01 -2.49564991e+01 -6.81958008e+00
      -3.09832993e+01 5.23816012e-02 -6.75469971e+01 -5.92127991e+01
      -1.52529001e+01 9.30622005e+00</_>
    <_>
      6.30392990e+01 -3.86688995e+01 -1.11239996e+01 -5.90764999e+00
      2.09703999e+01 5.10824993e-02 -2.44836006e+01 2.94442997e+01
      -1.68045998e+01 -4.35731983e+00</_>
    <_>
      6.25640984e+01 6.65724993e+00 -1.31384001e+01 3.85610008e+00
      -1.59968996e+01 6.01671003e-02 -3.93301010e+01 -4.44389992e+01
      1.21966000e+01 -1.40504999e+01</_>
    <_>
      6.09455986e+01 -7.76484013e+00 -2.85877991e+01 1.40538998e+01
      -2.00923996e+01 5.76612018e-02 -3.39650002e+01 -2.60667000e+01
      5.23884010e+00 4.05569983e+00</_>
    <_>
      5.83264999e+01 4.72436011e-01 -1.99151993e+01 8.24985027e+00
      -1.46652002e+01 5.95530011e-02 -3.65863991e+01 -3.42999001e+01
      1.17687998e+01 -5.94004011e+00</_>
    <_>
      6.28507996e+01 -4.23390999e+01 -1.24624004e+01 -2.34723997e+00
      1.05263996e+01 1.22893997e-01 -1.62205009e+01 1.70496006e+01
      8.30854988e+00 -2.15141010e+00</_>
    <_>
      -293314. 289206. 7.74017969e+04 -8.54367031e+04 1.21387002e+04
      1.93038005e-02 389433. -256524. 3.07355000e+04 8.10647021e+03</_>
    <_>
      7.11825027e+01 4.37862015e+00 -2.13654003e+01 1.06099997e+01
      -2.81623001e+01 5.48604988e-02 -4.93426018e+01 -4.11016998e+01
      -1.24058998e+00 -1.59908998e+00</_>
    <_>
      4.96733017e+01 -9.71710968e+00 -2.51436996e+01 1.55595999e+01
      -8.65408039e+00 6.04670011e-02 -1.50481005e+01 -2.23801003e+01
      6.92742014e+00 1.07039003e+01</_>
    <_>
      9.84476013e+01 3.88878989e+00 -1.47236001e+00 -3.34217987e+01
      -1.24771004e+01 5.28291985e-02 -6.06226997e+01 -1.21374998e+01
      -4.45407982e+01 -1.53783998e+01</_>
    <_>
      8.04605026e+01 2.49030991e+01 -3.21788001e+00 1.51846004e+00
      -2.57154012e+00 8.52577984e-02 6.20924997e+00 -4.09855003e+01
      -9.56285000e+00 -1.06559000e+01</_>
    <_>
      6.95203018e+01 -4.48267984e+00 -4.04864998e+01 1.24225998e+01
      8.58790970e+00 6.09125011e-02 -2.53234997e+01 -3.00307989e+00
      -2.03008003e+01 -6.01915979e+00</_>
    <_>
      7.35641022e+01 5.07863998e+00 3.08962002e+01 -5.21589994e-01
      -7.89118004e+00 9.14862007e-02 1.91879997e+01 -4.33068008e+01
      -6.14075994e+00 -1.16583004e+01</_>
    <_>
      6.72808990e+01 -1.14196002e+00 -4.03303986e+01 4.09341991e-01
      3.30042005e+00 6.38877973e-02 -4.19337997e+01 -9.65855980e+00
      -1.21412001e+01 1.05654001e+01</_>
    <_>
      7.76970978e+01 -1.59666996e+01 -4.03604012e+01 1.55544004e+01
      -1.67394996e+00 6.40361980e-02 -1.89188995e+01 -1.74139996e+01
      -1.89330006e+01 1.16168003e+01</_>
    <_>
      7.09377975e+01 -2.31257992e+01 -4.05834999e+01 3.01352005e+01
      -2.02835007e+01 5.36125004e-02 -4.04990005e+01 -1.26241999e+01
      6.47569001e-02 1.41393995e+01</_>
    <_>
      4.04347992e+01 -5.36487007e+01 -2.26942005e+01 1.09012003e+01
      3.01361008e+01 5.08061014e-02 8.60674000e+00 4.25844002e+01
      -2.99477005e+00 5.93526983e+00</_>
    <_>
      6.33195992e+01 1.43169003e+01 1.89461994e+01 -2.60439992e+00
      -8.15077972e+00 9.47426036e-02 1.04048996e+01 -3.40026016e+01
      -1.74023991e+01 -7.41596985e+00</_>
    <_>
      7.65855026e+01 -2.22273998e+01 -2.67119999e+01 -1.19240999e+01
      1.81236992e+01 5.60280010e-02 -2.65147991e+01 1.62851009e+01
      -2.79839001e+01 1.54535997e+00</_>
    <_>
      6.98398972e+01 -2.28863001e+00 -3.27835999e+01 1.01866999e+01
      -5.24290991e+00 6.43135980e-02 -3.20960007e+01 -1.95942998e+00
      -2.75477009e+01 -1.31351995e+00</_>
    <_>
      7.51048965e+01 -9.07229042e+00 -1.64039993e+01 -4.89657021e+00
      4.57742977e+00 5.57860993e-02 -4.02668991e+01 8.29697990e+00
      -3.40106010e+01 -7.29608011e+00</_>
    <_>
      6.02568016e+01 -1.24987001e+01 -1.84916992e+01 -1.32516003e+00
      7.07203007e+00 5.55491000e-02 -2.44102001e+01 1.27823000e+01
      -2.33024006e+01 -4.03949022e+00</_>
    <_>
      7.59517975e+01 1.91725998e+01 -5.47660017e+00 2.57576990e+00
      -5.67718983e+00 8.75926018e-02 1.05579996e+01 -4.78622017e+01
      -5.64109993e+00 6.05989981e+00</_>
    <_>
      6.20503006e+01 -3.39076996e+01 2.12637005e+01 7.77499974e-01
      -3.75638992e-01 1.13954999e-01 1.61716995e+01 1.24391003e+01
      -1.30226004e+00 -3.54252005e+00</_>
    <_>
      6.45609970e+01 -1.52407999e+01 -2.29610996e+01 -5.62657022e+00
      8.70835972e+00 5.61552010e-02 -4.32633018e+01 6.63752985e+00
      -1.92859993e+01 1.08100004e+01</_>
    <_>
      5.52144012e+01 -1.84517002e+01 -3.77307014e+01 1.71709995e+01
      -3.50074005e+00 5.65173998e-02 -3.17896004e+01 -5.48151016e+00
      5.00665998e+00 1.11309004e+01</_>
    <_>
      6.90897980e+01 3.67409992e+00 3.08600998e+01 2.97355008e+00
      -6.62644005e+00 9.64244008e-02 2.37304001e+01 -2.56065006e+01
      -9.94503021e+00 -9.16090012e+00</_>
    <_>
      7.32413025e+01 -1.93544998e+01 -3.99485016e+01 -3.18322992e+00
      8.27501965e+00 4.83743995e-02 -5.77905998e+01 -1.63548005e+00
      -7.16231012e+00 2.34571991e+01</_>
    <_>
      6.63842010e+01 -3.24543991e+01 -1.28886995e+01 -1.34790001e+01
      2.68689995e+01 4.87275012e-02 -3.09449005e+01 1.98568993e+01
      -1.09653997e+01 -6.08862019e+00</_>
    <_>
      4.44935989e+01 -4.34109001e+01 -1.30917997e+01 -1.35351002e+00
      2.32348995e+01 4.68566008e-02 -6.42416000e+00 2.71088009e+01
      -1.02201004e+01 1.24073000e+01</_>
    <_>
      8.43695984e+01 -5.54487991e+00 -4.52202988e+01 1.81739006e+01
      -1.50198002e+01 6.26809970e-02 -4.69478989e+01 -2.09577999e+01
      -2.27600002e+01 9.01140022e+00</_>
    <_>
      -9.38748016e+01 -1.66636002e+02 1.51768005e+02 1.06800003e+02
      1.31434002e+01 4.19808999e-02 2.52296005e+02 1.85518005e+02
      -4.82254982e+01 -7.23034973e+01</_>
    <_>
      3.17640015e+02 -6.08620987e+01 -3.29080994e+02 3.03341007e+00
      8.74170990e+01 3.78951989e-02 -4.71881989e+02 3.30243988e+01
      1.84313004e+02 -3.18174000e+01</_>
    <_>
      2.44281998e+01 -8.15121994e+01 6.01643991e+00 1.52243004e+01
      4.28139992e+01 4.45359014e-02 3.33926010e+01 6.90882034e+01
      6.82476997e-01 -9.06725979e+00</_>
    <_>
      6.77666016e+01 -3.01425991e+01 3.38246994e+01 -2.18624997e+00
      2.78609991e+00 1.09123997e-01 2.97301998e+01 -1.02226996e+00
      3.98493004e+00 -5.83046007e+00</_>
    <_>
      6.14584007e+01 -2.24037991e+01 -3.26720009e+01 1.48149004e+01
      -3.45644999e+00 5.51830009e-02 -3.83167000e+01 6.91605997e+00
      -1.52639999e+01 1.45832996e+01</_>
    <_>
      7.73089981e+01 -5.10178986e+01 -4.33081017e+01 -1.19651003e+01
      4.11002998e+01 4.41005006e-02 -6.04865990e+01 2.69857006e+01
      2.98974991e+01 -8.67243958e+00</_>
    <_>
      7.53749008e+01 -1.88626003e+01 -2.92628994e+01 -4.24311018e+00
      9.44268036e+00 5.51811010e-02 -4.69911995e+01 1.10500002e+01
      -2.37535000e+01 8.15645027e+00</_></support_vectors>
  <decision_functions>
    <_>
      <sv_count>46</sv_count>
      <rho>5.0000000000000000e-01</rho>
      <alpha>
        5.0000000000000000e-01 5.0000000000000000e-01
        5.0000000000000000e-01 5.0000000000000000e-01
        5.0000000000000000e-01 5.0000000000000000e-01
        5.0000000000000000e-01 5.0000000000000000e-01
        5.0000000000000000e-01 5.0000000000000000e-01
        5.0000000000000000e-01 5.0000000000000000e-01
        5.0000000000000000e-01 5.0000000000000000e-01
        5.0000000000000000e-01 5.0000000000000000e-01
        5.0000000000000000e-01 5.0000000000000000e-01
        5.0000000000000000e-01 5.0000000000000000e-01
        5.0000000000000000e-01 5.0000000000000000e-01
        5.0000000000000000e-01 5.0000000000000000e-01
        5.0000000000000000e-01 5.0000000000000000e-01
        5.0000000000000000e-01 5.0000000000000000e-01
        5.0000000000000000e-01 5.0000000000000000e-01
        5.0000000000000000e-01 5.0000000000000000e-01
        5.0000000000000000e-01 5.0000000000000000e-01
        5.0000000000000000e-01 5.0000000000000000e-01
        5.0000000000000000e-01 5.0000000000000000e-01
        5.0000000000000000e-01 5.0000000000000000e-01
        5.0000000000000000e-01 5.0000000000000000e-01
        5.0000000000000000e-01 5.0000000000000000e-01
        5.0000000000000000e-01 5.0000000000000000e-01</alpha></_></decision_functions></opencv_ml_svm>
</opencv_storage>
