<?xml version="1.0"?>
<opencv_storage>
<opencv_ml_svm>
  <format>3</format>
  <svmType>ONE_CLASS</svmType>
  <kernel>
    <type>RBF</type>
    <gamma>1.</gamma></kernel>
  <nu>5.0000000000000000e-01</nu>
  <term_criteria><iterations>100</iterations></term_criteria>
  <var_count>10</var_count>
  <class_count>1</class_count>
  <sv_total>46</sv_total>
  <support_vectors>
    <_>
      6.53905029e+01 -1.89129009e+01 -4.19317017e+01 2.61480999e+01
      -1.06550999e+01 5.78991994e-02 -2.45662994e+01 -1.49351997e+01
      -4.22580987e-01 1.70067005e+01</_>
    <_>
      6.81015015e+01 -5.68837976e+00 -4.21538010e+01 3.26745009e+00
      -9.71275997e+00 5.28132990e-02 -4.25811005e+01 -2.32647991e+01
      -7.27321005e+00 2.88512001e+01</_>
    <_>
      6.64837036e+01 -2.59685001e+01 -3.80106010e+01 8.82641029e+00
      8.90533984e-01 5.49166016e-02 -3.27756004e+01 2.89928007e+00
      -1.87723007e+01 2.84468994e+01</_>
    <_>
      1.18114998e+02 3.50399995e+00 -1.03734001e+02 -3.87629013e+01
      4.16334000e+01 4.26854007e-02 -1.37343994e+02 -2.98120003e+01
      3.98959007e+01 2.86005993e+01</_>
    <_>
      6.24105988e+01 -2.37119999e+01 -4.08553009e+01 2.41840000e+01
      -2.16525006e+00 5.44872992e-02 -2.71529999e+01 4.59960997e-01
      -4.65460014e+00 1.70869007e+01</_>
    <_>
      5.69021988e+01 -1.23884001e+01 -2.96431007e+01 1.85790997e+01
      -1.45600996e+01 5.55769987e-02 -2.51387997e+01 -1.58676004e+01
      7.73850024e-01 9.78201962e+00</_>
    <_>
      5.94626007e+01 -1.33114996e+01 -3.47378998e+01 2.25403996e+01
      -1.85701008e+01 5.50638996e-02 -2.77317009e+01 -1.67611008e+01
      -2.45964006e-01 1.42237997e+01</_>
    <_>
      6.83565979e+01 -7.32945013e+00 -4.21506996e+01 1.22170000e+01
      -1.41155005e+01 5.37684001e-02 -3.62444992e+01 -2.60321999e+01
      -4.43922997e+00 2.65086994e+01</_>
    <_>
      6.63087997e+01 4.98336983e+00 -2.19792995e+01 8.30060959e+00
      -2.68288002e+01 5.49055003e-02 -3.83730011e+01 -4.14935989e+01
      7.85673976e-01 2.89491010e+00</_>
    <_>
      7.55938034e+01 1.00730000e+01 1.37040005e+01 -8.14850044e+00
      -1.49132996e+01 9.02779996e-02 1.53196001e+01 -5.38026009e+01
      6.50563002e+00 -1.02678001e+00</_>
    <_>
      6.18899994e+01 -6.93856001e+00 -3.73148003e+01 1.69885006e+01
      -2.00114002e+01 5.40844984e-02 -3.42434006e+01 -2.07567005e+01
      -3.62262988e+00 2.15223007e+01</_>
    <_>
      5.60028992e+01 -1.62115993e+01 -3.25540009e+01 2.24290009e+01
      -1.71471996e+01 5.69082983e-02 -1.79943008e+01 -1.82642994e+01
      1.65764999e+00 1.72551003e+01</_>
    <_>
      5.94822006e+01 -1.90559006e+01 -2.51196003e+01 2.73742008e+01
      -2.48726997e+01 5.50931990e-02 -1.40496998e+01 -2.43686008e+01
      2.26487994e+00 9.37203979e+00</_>
    <_>
      -5.60997009e+02 -3.05178009e+02 6.91231995e+02 2.63665985e+02
      -8.83893967e+01 3.95328999e-02 1.07443005e+03 3.80007996e+02
      -3.03213989e+02 -1.42110992e+02</_>
    <_>
      6.32428017e+01 -5.03386993e+01 -5.40557981e-01 -4.80330992e+00
      8.07343960e+00 1.24362998e-01 -1.50763998e+01 1.48127003e+01
      9.86091995e+00 2.51770997e+00</_>
    <_>
      6.50192032e+01 -1.98681998e+00 -3.42336998e+01 1.14785995e+01
      -1.89053993e+01 5.29812016e-02 -3.77993011e+01 -2.38237991e+01
      -8.92553043e+00 2.46084995e+01</_>
    <_>
      5.75494995e+01 -2.50086002e+01 2.43469009e+01 -6.53654003e+00
      1.52570000e+01 1.03551999e-01 1.80479002e+00 2.32747993e+01
      -2.67750001e+00 3.02884007e+00</_>
    <_>
      7.67698975e+01 -6.58237982e+00 -4.07430000e+01 3.39703989e+00
      1.60543003e+01 6.27458990e-02 -2.40751991e+01 1.05219997e-01
      -2.50601997e+01 -7.33929014e+00</_>
    <_>
      6.48335037e+01 7.09351015e+00 -1.21409998e+01 7.26289988e+00
      -7.78276980e-01 8.59600976e-02 6.53297997e+00 -3.01984005e+01
      -4.47834015e+00 -2.54702997e+00</_>
    <_>
      6.47317963e+01 -6.32731009e+00 -3.89864006e+01 6.90741014e+00
      1.43915005e+01 6.31678998e-02 -5.09345007e+00 -7.74552011e+00
      -2.77462997e+01 3.53676009e+00</_>
    <_>
      6.75502014e+01 -2.03973007e+01 2.22987003e+01 -1.36308002e+01
      -1.39610996e+01 9.13709998e-02 1.87693005e+01 -2.79326992e+01
      1.58863001e+01 8.73377037e+00</_>
    <_>
      6.97132034e+01 -1.92155991e+01 3.17520008e+01 1.26566000e+01
      -2.86456990e+00 1.13493003e-01 1.20095997e+01 -1.05806994e+00
      -8.06538963e+00 -1.79055004e+01</_>
    <_>
      7.74061966e+01 -1.36311998e+01 -3.13092003e+01 -9.78687000e+00
      2.00020008e+01 5.78312017e-02 -1.89169998e+01 1.00086002e+01
      -2.73241997e+01 -1.58502998e+01</_>
    <_>
      6.33909988e+01 -2.87294998e+01 -2.04363003e+01 2.88892994e+01
      -2.12978001e+01 5.87511994e-02 -1.10810003e+01 -2.37133007e+01
      1.13620996e+01 3.69112992e+00</_>
    <_>
      6.39226990e+01 -1.33583002e+01 3.52299995e+01 -1.01114998e+01
      -1.14988003e+01 9.46390033e-02 7.37346983e+00 -1.35088997e+01
      -4.78505993e+00 -9.95370007e+00</_>
    <_>
      6.44218979e+01 -7.53846979e+00 -2.91266994e+01 9.33751011e+00
      6.56511021e+00 6.28478974e-02 -1.24408998e+01 -4.37748003e+00
      -2.71760998e+01 -7.70201981e-01</_>
    <_>
      7.81969986e+01 -5.73292017e+00 1.71860003e+00 1.99739003e+00
      -6.49153996e+00 8.92478973e-02 1.59558001e+01 -5.15177002e+01
      1.57193003e+01 5.95206022e+00</_>
    <_>
      7.19899979e+01 5.11816978e+00 -6.83798981e+00 5.91820002e+00
      5.31883001e+00 8.60890970e-02 1.44108000e+01 -4.06823006e+01
      9.43592012e-01 -2.07748008e+00</_>
    <_>
      7.80500031e+01 -9.57067013e+00 -2.79622993e+01 -8.80235958e+00
      1.94528008e+01 6.02698997e-02 -2.62971992e+01 4.45724010e+00
      -2.92070999e+01 -9.81776047e+00</_>
    <_>
      6.69200974e+01 -9.65624046e+00 -3.58630981e+01 -2.53233004e+00
      1.57721996e+01 6.14450015e-02 -1.97189007e+01 -5.56743002e+00
      -2.21672993e+01 7.66705990e+00</_>
    <_>
      7.25641022e+01 -1.41777000e+01 -3.46740990e+01 2.80980992e+00
      1.03381996e+01 6.21389002e-02 -1.31224003e+01 -2.36314011e+00
      -3.13460999e+01 5.93573999e+00</_>
    <_>
      7.17177963e+01 9.39093018e+00 -9.37653005e-01 2.03518009e+00
      -8.59574974e-01 8.62803012e-02 7.57452011e+00 -4.48233986e+01
      3.97983003e+00 -1.88393998e+00</_>
    <_>
      7.18246002e+01 4.19611007e-01 2.18082008e+01 -9.80945969e+00
      -2.99489999e+00 9.15997997e-02 1.70137997e+01 -3.64319992e+01
      -1.42022002e+00 -3.96669000e-01</_>
    <_>
      6.42263031e+01 -2.97196007e+01 -2.80988007e+01 1.47482004e+01
      -6.86732006e+00 5.28910011e-02 -2.56842003e+01 4.91357994e+00
      -2.23586006e+01 2.79512997e+01</_>
    <_>
      -1.90811996e+02 -2.00738998e+02 2.73054993e+02 1.35238007e+02
      -3.04610991e+00 4.11579013e-02 4.46572998e+02 2.29720001e+02
      -1.03480003e+02 -1.00082001e+02</_>
    <_>
      6.58768997e+01 -1.40023003e+01 -1.42193003e+01 1.30201998e+01
      -1.27271004e+01 6.32196963e-02 -2.43160992e+01 -3.99500008e+01
      2.60044003e+01 -1.29680996e+01</_>
    <_>
      7.45299988e+01 -3.60098000e+01 2.29411006e+00 -4.60960007e+00
      -1.16503000e+00 1.34911999e-01 -3.38296013e+01 2.96836996e+00
      -1.75090008e+01 -1.11347997e+00</_>
    <_>
      6.62163010e+01 8.19010973e-01 -2.06585007e+01 1.35633001e+01
      -2.00800991e+01 6.49800971e-02 -3.63404999e+01 -3.56856995e+01
      2.98270988e+00 -3.28313994e+00</_>
    <_>
      8.56072006e+01 -3.34827003e+01 -4.53619995e+01 1.59993005e+00
      2.06702003e+01 5.62799983e-02 -2.98638992e+01 1.91853008e+01
      -3.39571991e+01 1.40883999e+01</_>
    <_>
      6.76017990e+01 -2.44885998e+01 -4.06064987e+01 6.56897020e+00
      1.60611000e+01 5.66917993e-02 -3.51190987e+01 1.51609001e+01
      -1.55634003e+01 1.40965996e+01</_>
    <_>
      6.31509018e+01 -1.31258001e+01 -3.34445000e+01 2.18150997e+01
      -1.63752995e+01 6.07418008e-02 -2.08316002e+01 -3.26142006e+01
      1.20214005e+01 1.06479998e+01</_>
    <_>
      6.72334976e+01 -1.38216000e+01 -3.85068016e+01 2.19109993e+01
      -8.17588043e+00 6.01643994e-02 -3.35783005e+01 -1.30113001e+01
      -7.92306995e+00 1.65214996e+01</_>
    <_>
      7.44589005e+01 -9.68216991e+00 3.50210991e+01 -9.96855021e-01
      -5.01226997e+00 1.00134000e-01 3.05466003e+01 -2.81709003e+01
      -1.18189001e+00 -1.40427999e+01</_>
    <_>
      7.63557968e+01 -1.98633995e+01 -4.77965012e+01 2.97712994e+01
      -1.50523996e+01 6.14756010e-02 -1.75538006e+01 -3.83685989e+01
      3.73690009e+00 2.12056007e+01</_>
    <_>
      2.00550995e+01 -9.59946976e+01 -6.04504013e+00 3.77196999e+01
      5.37013016e+01 4.43001017e-02 5.14718018e+01 9.04442978e+01
      1.96138992e+01 -2.72677002e+01</_>
    <_>
      8.23621979e+01 -1.95258007e+01 -3.54776001e+01 2.93495011e+00
      1.13474998e+01 5.71134984e-02 -3.27277985e+01 2.47403002e+00
      -3.70615997e+01 1.48625002e+01</_></support_vectors>
  <decision_functions>
    <_>
      <sv_count>46</sv_count>
      <rho>5.0000000000000000e-01</rho>
      <alpha>
        5.0000000000000000e-01 5.0000000000000000e-01
        5.0000000000000000e-01 5.0000000000000000e-01
        5.0000000000000000e-01 5.0000000000000000e-01
        5.0000000000000000e-01 5.0000000000000000e-01
        5.0000000000000000e-01 5.0000000000000000e-01
        5.0000000000000000e-01 5.0000000000000000e-01
        5.0000000000000000e-01 5.0000000000000000e-01
        5.0000000000000000e-01 5.0000000000000000e-01
        5.0000000000000000e-01 5.0000000000000000e-01
        5.0000000000000000e-01 5.0000000000000000e-01
        5.0000000000000000e-01 5.0000000000000000e-01
        5.0000000000000000e-01 5.0000000000000000e-01
        5.0000000000000000e-01 5.0000000000000000e-01
        5.0000000000000000e-01 5.0000000000000000e-01
        5.0000000000000000e-01 5.0000000000000000e-01
        5.0000000000000000e-01 5.0000000000000000e-01
        5.0000000000000000e-01 5.0000000000000000e-01
        5.0000000000000000e-01 5.0000000000000000e-01
        5.0000000000000000e-01 5.0000000000000000e-01
        5.0000000000000000e-01 5.0000000000000000e-01
        5.0000000000000000e-01 5.0000000000000000e-01
        5.0000000000000000e-01 5.0000000000000000e-01
        5.0000000000000000e-01 5.0000000000000000e-01</alpha></_></decision_functions></opencv_ml_svm>
</opencv_storage>
