<?xml version="1.0"?>
<opencv_storage>
<opencv_ml_svm>
  <format>3</format>
  <svmType>ONE_CLASS</svmType>
  <kernel>
    <type>RBF</type>
    <gamma>6.9999998807907104e-01</gamma></kernel>
  <nu>5.0000000000000000e-01</nu>
  <term_criteria><iterations>100</iterations></term_criteria>
  <var_count>10</var_count>
  <class_count>1</class_count>
  <sv_total>46</sv_total>
  <support_vectors>
    <_>
      7.00503006e+01 3.05171990e+00 -1.76331997e+01 1.05242996e+01
      -2.28558006e+01 6.22891001e-02 -3.50032005e+01 -5.01043015e+01
      1.64521003e+00 -7.61873007e+00</_>
    <_>
      1.04920998e+02 1.51761999e+01 -4.53967018e+01 -1.24989996e+01
      -2.85070992e+01 4.91385013e-02 -8.94373016e+01 -5.70737000e+01
      -2.92542992e+01 3.63275986e+01</_>
    <_>
      6.55994034e+01 -3.02909994e+00 -2.66359005e+01 1.40105000e+01
      -1.34596996e+01 6.28144965e-02 -3.60112000e+01 -3.41734009e+01
      1.00207996e+01 -2.20900989e+00</_>
    <_>
      5.82476006e+01 -2.29279995e+00 -2.09782009e+01 1.23800001e+01
      -1.58959999e+01 5.81276007e-02 -3.30200996e+01 -3.02896996e+01
      1.16618004e+01 -6.32512999e+00</_>
    <_>
      6.81468964e+01 -1.25184000e+00 -2.92824993e+01 9.97169971e+00
      -1.94482002e+01 5.72444983e-02 -4.13185005e+01 -3.51472015e+01
      -6.19808972e-01 9.37189960e+00</_>
    <_>
      6.55407028e+01 8.13420963e+00 -2.43342991e+01 7.51149988e+00
      -2.03876991e+01 5.61714992e-02 -4.38549004e+01 -3.62388992e+01
      -9.20903969e+00 5.04007006e+00</_>
    <_>
      7.19468002e+01 -7.32484007e+00 -1.66114998e+01 1.27171001e+01
      -1.85132008e+01 5.90038002e-02 -3.25983009e+01 -5.09672012e+01
      1.90226994e+01 -1.47876997e+01</_>
    <_>
      6.44508972e+01 -1.61644006e+00 -1.43873997e+01 1.19468002e+01
      -1.32695999e+01 5.87784015e-02 -3.36459007e+01 -3.93810997e+01
      1.36322002e+01 -1.69655991e+01</_>
    <_>
      1.50869995e+02 6.02331009e+01 -6.99767990e+01 -6.00508995e+01
      -3.24509010e+01 4.75451015e-02 -1.67085999e+02 -1.11225998e+02
      -3.15312996e+01 5.22125015e+01</_>
    <_>
      7.16520004e+01 -9.30599976e+00 -3.38703995e+01 1.34240999e+01
      3.26877999e+00 5.74719012e-02 -3.99034996e+01 -7.17119992e-01
      -2.33997993e+01 1.17392004e+00</_>
    <_>
      9.73322031e+04 -8.32161016e+04 -4.36941016e+04 3.29625000e+04
      -3.33541992e+03 2.32196003e-02 -139398. 81358. -1.75132996e+03
      -4.72385986e+03</_>
    <_>
      6.91060028e+01 -6.00247002e+00 -3.93452988e+01 8.67444992e+00
      -1.58803997e+01 5.37595004e-02 -4.42542992e+01 -2.95074997e+01
      -5.41423988e+00 2.18738995e+01</_>
    <_>
      5.79692001e+01 -2.51641989e+00 -1.05738001e+01 1.97080004e+00
      -1.09518995e+01 6.15159012e-02 -2.56483994e+01 -4.48776016e+01
      2.12238998e+01 -9.04928970e+00</_>
    <_>
      6.00080986e+01 -4.07785988e+01 -7.80101013e+00 -3.66431999e+00
      1.12824001e+01 1.25319004e-01 -2.62936993e+01 1.86867008e+01
      7.04729986e+00 2.58359003e+00</_>
    <_>
      7.38125992e+01 -1.35311003e+01 -3.94906006e+01 2.73199005e+01
      -1.00667000e+01 6.28136024e-02 -1.56674995e+01 -2.91832008e+01
      -6.95814991e+00 7.42430019e+00</_>
    <_>
      1.70746994e+02 7.75401993e+01 -9.10390015e+01 -8.20567017e+01
      -2.41567001e+01 4.68728989e-02 -2.00839005e+02 -1.33365997e+02
      -1.97406006e+01 5.92923012e+01</_>
    <_>
      6.31265984e+01 -3.73972988e+00 -3.27444005e+00 1.29910002e+01
      -1.00082998e+01 1.35227993e-01 -5.38572998e+01 -8.75833988e-01
      -1.44870005e+01 -8.62913036e+00</_>
    <_>
      8.79162979e+01 -1.80056000e+00 -3.58925018e+01 2.14572001e+00
      -9.09480953e+00 6.09105006e-02 -6.19752007e+01 8.94557953e+00
      -3.24388008e+01 -1.60112991e+01</_>
    <_>
      8.12496033e+01 -1.23953998e+00 -4.26189995e+01 5.28017998e+00
      1.59647000e+00 6.47830963e-02 -3.71483994e+01 -8.03061962e+00
      -2.95102997e+01 -6.90994024e-01</_>
    <_>
      7.02955017e+01 -1.11985998e+01 -3.76515999e+01 5.20177984e+00
      8.89538956e+00 5.73837012e-02 -3.73494987e+01 6.40584993e+00
      -1.95704994e+01 2.21407008e+00</_>
    <_>
      7.31687012e+01 -4.11282003e-01 -2.83398991e+01 2.10702991e+01
      -1.98328991e+01 6.71501011e-02 -3.78120003e+01 -3.72240982e+01
      -9.27509975e+00 -4.87134981e+00</_>
    <_>
      -4111980. 5242210. -796140. -475713. 141622. 1.41281001e-02
      4167540. -3442040. 997892. -68996.</_>
    <_>
      7.67923965e+01 -9.41613960e+00 -4.01585007e+01 8.55171013e+00
      6.90890980e+00 6.09707013e-02 -3.22975006e+01 -1.01057000e-01
      -2.98234997e+01 3.17365003e+00</_>
    <_>
      2.31965000e+04 -1.51575000e+04 -1.61775000e+04 8.30790039e+03
      -1.28729004e+02 2.69632991e-02 -3.60578984e+04 1.65585000e+04
      3.17761011e+03 -1.76225000e+03</_>
    <_>
      6.71408997e+01 -1.40593996e+01 -1.12026997e+01 -3.61708999e+00
      -2.06199005e-01 1.35915995e-01 -4.73069000e+01 -1.09118996e+01
      -9.18120956e+00 2.10020995e+00</_>
    <_>
      7.94051971e+01 -1.50328999e+01 -3.24370003e+01 7.80385971e-01
      6.24700022e+00 5.56279011e-02 -5.35181999e+01 7.40948009e+00
      -2.42658997e+01 -7.75626004e-01</_>
    <_>
      8.25035019e+01 -1.33084002e+01 -4.10848999e+01 5.56305981e+00
      8.84508991e+00 5.84629998e-02 -5.19491005e+01 8.68542957e+00
      -2.64221992e+01 -3.27027011e+00</_>
    <_>
      7.90664978e+01 -1.63936996e+01 -2.61665001e+01 -1.24581003e+01
      7.52697992e+00 5.60950004e-02 -5.24457016e+01 1.30827999e+01
      -2.31070995e+01 -5.07263994e+00</_>
    <_>
      8.68452988e+01 5.88213027e-01 -3.90681992e+01 4.79329014e+00
      -7.69779015e+00 6.14921004e-02 -5.79533005e+01 -4.22423983e+00
      -3.26548996e+01 -7.36032009e+00</_>
    <_>
      6.39939003e+01 -4.62686996e+01 -1.57074003e+01 -1.02024002e+01
      2.90249996e+01 4.66503017e-02 -1.22862997e+01 3.34230995e+01
      -4.81299019e+00 -1.24077997e+01</_>
    <_>
      7.18165970e+01 -3.56463013e+01 2.67600994e+01 1.21807003e+01
      -1.12639999e+01 1.12122998e-01 2.08253002e+01 2.99987006e+00
      -2.12124991e+00 -1.11750002e+01</_>
    <_>
      7.45728989e+01 -3.42500992e+01 2.26406994e+01 2.19552994e+01
      -1.07714005e+01 1.10312000e-01 1.51070004e+01 1.14244003e+01
      -3.65558004e+00 -1.12674999e+01</_>
    <_>
      7.30659027e+01 -2.66112003e+01 -2.75524998e+01 -1.54055996e+01
      1.66639996e+01 5.25523014e-02 -4.09388008e+01 7.76034021e+00
      -1.67702999e+01 1.02776003e+01</_>
    <_>
      6.69412003e+01 -2.11739998e+01 -3.90556984e+01 2.08132000e+01
      -7.57524014e+00 5.44340014e-02 -3.87537003e+01 -5.23514986e+00
      -9.55430984e+00 1.79354000e+01</_>
    <_>
      6.60113983e+01 -5.15021019e+01 -1.67814004e+00 -1.15821004e+00
      4.21267986e+00 1.21122003e-01 -1.49024000e+01 2.20485992e+01
      3.24317002e+00 3.61650991e+00</_>
    <_>
      7.05339966e+01 -6.38677979e+00 -3.32324982e+01 1.44923000e+01
      -1.77513008e+01 5.67855015e-02 -5.17014008e+01 -2.20564995e+01
      9.28422995e-03 7.01619005e+00</_>
    <_>
      6.44719009e+01 -4.05145988e+01 -9.53612041e+00 -1.36042004e+01
      -3.17730010e-01 1.26955003e-01 -1.71858997e+01 6.23936987e+00
      1.90702999e+00 1.93274006e-01</_>
    <_>
      6.06198997e+01 -2.81551991e+01 -3.74300995e+01 1.04275999e+01
      8.41493988e+00 5.33023998e-02 -3.91859016e+01 1.20868998e+01
      -6.82039022e+00 1.89060993e+01</_>
    <_>
      8.72309036e+01 -5.86679001e+01 -1.63750000e+01 3.70180994e-01
      1.51356001e+01 1.22495003e-01 -2.63896999e+01 2.75818005e+01
      2.52891006e+01 -1.27909002e+01</_>
    <_>
      7.81631012e+01 -2.76327000e+01 -4.95840979e+00 -8.52060974e-01
      3.25296998e+00 1.34481996e-01 -4.65559006e+01 -3.13071012e-01
      -1.45906000e+01 2.00184011e+00</_>
    <_>
      8.23348007e+01 -1.99151003e+00 -3.25418015e+01 1.79948006e+01
      -2.23302002e+01 5.68615012e-02 -5.52126007e+01 -2.73008995e+01
      -1.19993000e+01 5.09350002e-01</_>
    <_>
      7.30683975e+01 -1.65891991e+01 -4.50159988e+01 1.71427002e+01
      -9.03190041e+00 5.76923005e-02 -5.00023003e+01 -8.22122955e+00
      -8.64379978e+00 1.76466999e+01</_>
    <_>
      6.92854996e+01 -1.84542007e+01 3.15636005e+01 -2.08663988e+00
      3.14484000e+00 1.04149997e-01 3.60451012e+01 -1.61734009e+01
      -1.13660999e-01 -1.20720997e+01</_>
    <_>
      7.60236969e+01 -2.29631996e+01 -4.95755005e+01 1.32507000e+01
      2.41670996e-01 5.51635996e-02 -5.15275993e+01 1.26215994e+00
      -1.17080002e+01 2.33486996e+01</_>
    <_>
      7.21867981e+01 -7.41331005e+00 -3.32841988e+01 2.01261997e+01
      -1.75473995e+01 6.20817989e-02 -4.30932999e+01 -2.34396000e+01
      -7.14020014e+00 2.14053988e+00</_>
    <_>
      6.85242004e+01 -4.62165985e+01 1.83527005e+00 9.06355000e+00
      6.86759996e+00 1.19179003e-01 -6.84627008e+00 2.40345993e+01
      1.33823004e+01 -6.85417986e+00</_></support_vectors>
  <decision_functions>
    <_>
      <sv_count>46</sv_count>
      <rho>5.0000000000000000e-01</rho>
      <alpha>
        5.0000000000000000e-01 5.0000000000000000e-01
        5.0000000000000000e-01 5.0000000000000000e-01
        5.0000000000000000e-01 5.0000000000000000e-01
        5.0000000000000000e-01 5.0000000000000000e-01
        5.0000000000000000e-01 5.0000000000000000e-01
        5.0000000000000000e-01 5.0000000000000000e-01
        5.0000000000000000e-01 5.0000000000000000e-01
        5.0000000000000000e-01 5.0000000000000000e-01
        5.0000000000000000e-01 5.0000000000000000e-01
        5.0000000000000000e-01 5.0000000000000000e-01
        5.0000000000000000e-01 5.0000000000000000e-01
        5.0000000000000000e-01 5.0000000000000000e-01
        5.0000000000000000e-01 5.0000000000000000e-01
        5.0000000000000000e-01 5.0000000000000000e-01
        5.0000000000000000e-01 5.0000000000000000e-01
        5.0000000000000000e-01 5.0000000000000000e-01
        5.0000000000000000e-01 5.0000000000000000e-01
        5.0000000000000000e-01 5.0000000000000000e-01
        5.0000000000000000e-01 5.0000000000000000e-01
        5.0000000000000000e-01 5.0000000000000000e-01
        5.0000000000000000e-01 5.0000000000000000e-01
        5.0000000000000000e-01 5.0000000000000000e-01
        5.0000000000000000e-01 5.0000000000000000e-01</alpha></_></decision_functions></opencv_ml_svm>
</opencv_storage>
