<?xml version="1.0"?>
<opencv_storage>
<opencv_ml_svm>
  <format>3</format>
  <svmType>ONE_CLASS</svmType>
  <kernel>
    <type>RBF</type>
    <gamma>1.</gamma></kernel>
  <nu>5.0000000000000000e-01</nu>
  <term_criteria><iterations>100</iterations></term_criteria>
  <var_count>10</var_count>
  <class_count>1</class_count>
  <sv_total>46</sv_total>
  <support_vectors>
    <_>
      7.83935013e+01 -5.99458981e+00 -2.75200005e+01 1.91226006e+01
      -2.58911991e+01 5.71831018e-02 -3.96046982e+01 -3.45245018e+01
      -1.27700996e+01 7.74946022e+00</_>
    <_>
      6.53153992e+01 -8.14076042e+00 -8.48811984e-01 -8.73085976e+00
      -2.98223996e+00 6.39690012e-02 -2.96854000e+01 -4.66832008e+01
      2.42835999e+01 -1.52545004e+01</_>
    <_>
      6.88463974e+01 -1.93258991e+01 -1.09671001e+01 -2.51150995e-01
      -1.61576996e+01 1.31436005e-01 -4.79328003e+01 -8.82485008e+00
      -1.52112999e+01 3.13626003e+00</_>
    <_>
      5.91426010e+01 -1.71762009e+01 1.74935997e-01 4.42313004e+00
      -5.50366020e+00 6.18447997e-02 -1.79398003e+01 -4.12126007e+01
      2.81187000e+01 -1.98115005e+01</_>
    <_>
      6.79878006e+01 -3.60015988e+00 -1.36400003e+01 1.10941000e+01
      -1.86156998e+01 6.22509010e-02 -2.87457008e+01 -4.62271004e+01
      1.14470997e+01 -1.15320997e+01</_>
    <_>
      6.04748001e+01 -7.32921982e+00 -1.91630001e+01 1.93377991e+01
      -1.97028008e+01 5.55462986e-02 -2.37733002e+01 -2.60193005e+01
      -3.33144999e+00 2.26134992e+00</_>
    <_>
      6.52608032e+01 -1.85338001e+01 -5.79374981e+00 1.01556003e+00
      -1.37585998e+00 6.31678998e-02 -2.29510002e+01 -4.21161003e+01
      3.16235008e+01 -1.62695999e+01</_>
    <_>
      6.82837982e+01 -1.60902004e+01 -1.19583998e+01 1.55749998e+01
      -1.96653996e+01 6.00006990e-02 -1.63540001e+01 -5.07737999e+01
      1.82831001e+01 -7.75155020e+00</_>
    <_>
      6.30488014e+01 -1.83069992e+01 1.32550001e+01 -1.11231003e+01
      4.75243998e+00 6.28184006e-02 -1.87191010e+01 -4.31931992e+01
      2.45813007e+01 -1.95680008e+01</_>
    <_>
      6.97594986e+01 -4.87860985e+01 -1.28309002e+01 9.68729019e+00
      1.03395996e+01 1.22341000e-01 -1.51927996e+01 2.22161007e+01
      8.77048969e+00 -4.89086008e+00</_>
    <_>
      6.79928970e+01 -1.61280994e+01 -1.04001999e+00 1.81893003e+00
      -5.97411013e+00 6.01792000e-02 -2.34232006e+01 -4.64194984e+01
      2.63162003e+01 -1.92924004e+01</_>
    <_>
      7.32354965e+01 -1.01025000e+01 -1.15403004e+01 2.28803005e+01
      -2.74106007e+01 5.91445006e-02 -2.30151997e+01 -4.46627007e+01
      3.52041006e+00 -1.21143999e+01</_>
    <_>
      8.16137009e+01 -6.82255030e-01 -2.46037006e+01 1.75919991e+01
      -3.54999008e+01 5.29300012e-02 -4.17905998e+01 -4.59238014e+01
      -1.66693001e+01 1.17700996e+01</_>
    <_>
      7.00905991e+01 -6.87317991e+00 -3.39225998e+01 1.82138004e+01
      -1.16638002e+01 6.04058988e-02 -3.09001999e+01 -2.02159004e+01
      -1.72807007e+01 8.25347042e+00</_>
    <_>
      6.72042007e+01 -5.18605995e+01 -8.14044952e+00 9.85793018e+00
      1.22118998e+01 1.20292999e-01 -2.10597992e+01 2.62497997e+01
      8.19293022e+00 -5.53564978e+00</_>
    <_>
      6.00195999e+01 -1.71686993e+01 1.84685001e+01 -1.40366001e+01
      -1.37712002e+00 6.18391000e-02 -1.51879997e+01 -4.49748993e+01
      1.68250999e+01 -1.41007996e+01</_>
    <_>
      6.85556030e+01 -2.08204002e+01 -3.60802002e+01 2.41546001e+01
      -1.62357006e+01 5.78448996e-02 -1.32867002e+01 -3.11867008e+01
      -4.38830996e+00 2.11896000e+01</_>
    <_>
      9.08067017e+01 9.36623955e+00 1.17007005e+00 -1.27238998e+01
      1.68241005e+01 8.91679004e-02 5.74277020e+00 -5.39168015e+01
      8.11279011e+00 -4.24302006e+00</_>
    <_>
      7.49537964e+01 -5.54081011e+00 -1.38521004e+01 1.76877995e+01
      7.25347996e+00 8.81310031e-02 2.22173996e+01 -4.24892998e+01
      5.04920006e+00 -1.32089996e+01</_>
    <_>
      7.64224014e+01 -1.06827002e+01 1.43205004e+01 -1.29623003e+01
      1.45976996e+00 9.10220966e-02 1.73316002e+01 -4.63563995e+01
      1.06091995e+01 8.17578018e-01</_>
    <_>
      -1.62028008e+01 -1.19112999e+02 2.65104008e+01 5.93404007e+01
      5.58917007e+01 4.61033992e-02 1.21369003e+02 1.31095993e+02
      -7.26682997e+00 -3.19538002e+01</_>
    <_>
      6.93197021e+01 -1.00665998e+01 -3.65909004e+01 1.74108005e+00
      1.16655998e+01 6.07948005e-02 -1.71292992e+01 -5.76530993e-01
      -3.15986004e+01 1.18073997e+01</_>
    <_>
      7.89683990e+01 -1.38397999e+01 -4.32924995e+01 1.52136002e+01
      -2.35763001e+00 6.51473030e-02 -7.25071001e+00 -1.78775997e+01
      -3.50666008e+01 2.09699001e+01</_>
    <_>
      7.52825012e+01 -2.12521992e+01 -3.55949998e+00 1.07203999e+01
      -2.35793991e+01 6.07311018e-02 -1.64228001e+01 -6.20292015e+01
      2.68451996e+01 -1.45897999e+01</_>
    <_>
      -2.37723007e+02 -2.38274002e+02 2.81826996e+02 1.92440002e+02
      4.98584986e+00 3.95204984e-02 5.08214996e+02 2.96092010e+02
      -1.01266998e+02 -1.16955002e+02</_>
    <_>
      7.10401993e+01 -1.06175003e+01 -3.60181007e+01 7.46419001e+00
      8.19038963e+00 5.87159991e-02 -2.57808990e+01 1.02584004e+00
      -2.83780003e+01 4.61242008e+00</_>
    <_>
      8.37740021e+01 -8.94841003e+00 2.60275993e+01 -7.16771984e+00
      -2.37841997e-02 8.80293027e-02 2.03764992e+01 -4.84422989e+01
      -1.35512996e+00 -1.87402999e+00</_>
    <_>
      7.79011993e+01 2.05779004e+00 2.07032990e+00 5.96784019e+00
      -3.45456004e+00 8.82643014e-02 2.34582005e+01 -4.70479012e+01
      2.77027988e+00 -2.70597005e+00</_>
    <_>
      7.23146973e+01 -4.07107010e+01 2.30333996e+01 1.50693998e+01
      -9.78269005e+00 1.16484001e-01 1.12152004e+01 1.76086006e+01
      -1.36524999e+00 -3.14437008e+00</_>
    <_>
      7.67686005e+01 -5.00598001e+00 2.36154003e+01 -1.49399996e+01
      -6.28147984e+00 9.35098007e-02 1.53340998e+01 -4.53342018e+01
      -1.03490000e+01 2.17215991e+00</_>
    <_>
      7.35235977e+01 -6.04310989e+00 1.66494999e+01 -2.72209001e+00
      7.69153023e+00 9.23015028e-02 2.32647991e+01 -4.07004013e+01
      5.20378017e+00 4.06347990e-01</_>
    <_>
      7.73613968e+01 -9.56499004e+00 2.22409000e+01 -1.10650997e+01
      4.99360991e+00 9.12742987e-02 1.42419004e+01 -4.40778999e+01
      6.45281017e-01 -5.51440001e+00</_>
    <_>
      7.10886002e+01 -1.66289997e+01 3.67076988e+01 9.93408012e+00
      -8.05278969e+00 1.02782004e-01 2.03220005e+01 -1.31763000e+01
      -6.78422022e+00 -1.24720001e+01</_>
    <_>
      7.32502975e+01 -1.26002998e+01 -3.02551003e+01 1.55361996e+01
      -1.85576992e+01 5.45071997e-02 -3.73016014e+01 -2.35298996e+01
      -1.42219000e+01 1.75664005e+01</_>
    <_>
      8.02838974e+01 -4.00895996e+01 -2.20366001e+01 -2.27255001e+01
      1.29607000e+01 1.27884001e-01 -3.74598007e+01 1.34354000e+01
      5.35681009e+00 7.55709982e+00</_>
    <_>
      6.74645996e+01 -1.55098000e+01 -2.12392006e+01 2.51707993e+01
      -1.99645004e+01 6.08006008e-02 -3.39532013e+01 -3.11856003e+01
      1.75974007e+01 -1.25731001e+01</_>
    <_>
      6.15920982e+01 -4.02237015e+01 -1.39398003e+01 -3.74552989e+00
      8.34714031e+00 1.23346001e-01 -1.38451004e+01 1.59419003e+01
      4.86304998e+00 3.88002992e-01</_>
    <_>
      7.75456009e+01 -7.38547993e+00 -2.69447002e+01 -1.75036001e+00
      -1.22198000e+01 5.34464009e-02 -4.68380013e+01 -2.33355007e+01
      -2.69316998e+01 2.31088009e+01</_>
    <_>
      8.43641968e+01 -5.28126984e+01 -1.84913998e+01 -3.13107991e+00
      1.77180004e+01 1.24229997e-01 -3.45634995e+01 2.63561993e+01
      2.41072998e+01 -5.16679001e+00</_>
    <_>
      7.62286987e+01 -1.10970001e+01 -3.75999985e+01 1.65366993e+01
      -9.01630020e+00 6.35251030e-02 -3.96012001e+01 -1.86699009e+01
      -1.54467001e+01 1.33851995e+01</_>
    <_>
      6.59207001e+01 -1.65139999e+01 -2.55624008e+01 2.04524994e+01
      -1.33586998e+01 6.22083992e-02 -2.40506001e+01 -3.60322990e+01
      1.66725006e+01 -2.74137998e+00</_>
    <_>
      7.77021027e+01 -2.59298000e+01 4.64403992e+01 -2.16639996e+00
      5.98175001e+00 9.46443006e-02 1.40361004e+01 1.79242000e-01
      -1.37568998e+01 -1.97401009e+01</_>
    <_>
      7.26318970e+01 -5.05894012e+01 1.17531004e+01 7.46090984e+00
      1.33550000e+00 1.18911996e-01 -6.19599009e+00 3.23828011e+01
      3.15337992e+00 -1.20997000e+01</_>
    <_>
      7.86672974e+01 -2.85382996e+01 -4.36456985e+01 3.59254990e+01
      -2.01835995e+01 5.96294999e-02 -2.44395008e+01 -2.35615997e+01
      -5.91727018e+00 1.55999002e+01</_>
    <_>
      6.30782013e+01 -1.72047005e+01 -3.46987991e+01 1.47817001e+01
      -8.48896027e+00 5.96380010e-02 -2.54650002e+01 -1.88701000e+01
      -4.46696997e+00 1.20082998e+01</_>
    <_>
      8.60742035e+01 -2.22474003e+00 -4.25144005e+01 1.49429998e+01
      -1.73036995e+01 6.35050982e-02 -5.00301018e+01 -2.95904007e+01
      -2.05963001e+01 9.63076019e+00</_></support_vectors>
  <decision_functions>
    <_>
      <sv_count>46</sv_count>
      <rho>5.0000000000000000e-01</rho>
      <alpha>
        5.0000000000000000e-01 5.0000000000000000e-01
        5.0000000000000000e-01 5.0000000000000000e-01
        5.0000000000000000e-01 5.0000000000000000e-01
        5.0000000000000000e-01 5.0000000000000000e-01
        5.0000000000000000e-01 5.0000000000000000e-01
        5.0000000000000000e-01 5.0000000000000000e-01
        5.0000000000000000e-01 5.0000000000000000e-01
        5.0000000000000000e-01 5.0000000000000000e-01
        5.0000000000000000e-01 5.0000000000000000e-01
        5.0000000000000000e-01 5.0000000000000000e-01
        5.0000000000000000e-01 5.0000000000000000e-01
        5.0000000000000000e-01 5.0000000000000000e-01
        5.0000000000000000e-01 5.0000000000000000e-01
        5.0000000000000000e-01 5.0000000000000000e-01
        5.0000000000000000e-01 5.0000000000000000e-01
        5.0000000000000000e-01 5.0000000000000000e-01
        5.0000000000000000e-01 5.0000000000000000e-01
        5.0000000000000000e-01 5.0000000000000000e-01
        5.0000000000000000e-01 5.0000000000000000e-01
        5.0000000000000000e-01 5.0000000000000000e-01
        5.0000000000000000e-01 5.0000000000000000e-01
        5.0000000000000000e-01 5.0000000000000000e-01
        5.0000000000000000e-01 5.0000000000000000e-01</alpha></_></decision_functions></opencv_ml_svm>
</opencv_storage>
