<?xml version="1.0"?>
<opencv_storage>
<opencv_ml_svm>
  <format>3</format>
  <svmType>ONE_CLASS</svmType>
  <kernel>
    <type>RBF</type>
    <gamma>1.0000000149011612e-01</gamma></kernel>
  <nu>2.0000000298023224e-01</nu>
  <term_criteria><iterations>100</iterations></term_criteria>
  <var_count>19</var_count>
  <class_count>1</class_count>
  <sv_total>10</sv_total>
  <support_vectors>
    <_>
      -4.63698991e-02 2.40702070e-02 -5.80595853e-03 -3.46639217e-03
      -1.49513723e-03 -1.28383562e-03 -7.05562270e-05 5.38638618e-04
      1.21367339e-03 -4.04987513e-04 7.48708902e-04 3.23826936e-03
      1.55703421e-03 2.50456459e-03 1.02826464e-03 -1.62067314e-04
      -2.35256484e-05 7.11143774e-04 -1.37906906e-03</_>
    <_>
      -4.65956181e-02 1.36491377e-02 1.71624194e-03 3.84449551e-04
      -1.01264170e-03 1.06942619e-03 -5.66402960e-05 -1.99696049e-03
      -7.35443842e-04 -7.41613272e-04 -1.42456952e-03 1.48674590e-03
      1.68393122e-03 -1.95420976e-03 -7.10126013e-04 1.84670280e-04
      -2.41266564e-03 -4.98621201e-04 8.12945189e-04</_>
    <_>
      -4.91621345e-02 2.11928263e-02 -2.17939075e-03 -1.78825005e-03
      -1.35524326e-03 6.68946188e-04 1.62111165e-03 2.38181814e-03
      -2.66629126e-04 -5.89768344e-04 -1.76910675e-04 -2.44870759e-03
      -1.49654422e-03 -7.78870657e-04 -1.44830602e-03 -1.96620729e-03
      -6.25920307e-04 2.46893702e-04 4.97070316e-04</_>
    <_>
      -5.13334163e-02 1.84668340e-02 2.51316163e-03 4.26486088e-03
      -1.26944415e-05 -2.46492622e-04 2.88693554e-04 3.81235759e-06
      -8.50781726e-05 -5.66242728e-04 -3.36228317e-04 1.06063053e-05
      2.35606843e-04 -1.08089997e-03 -1.16177730e-03 -1.65278942e-03
      1.47342717e-03 -4.12862755e-05 -4.52766079e-04</_>
    <_>
      -5.07303439e-02 2.69112214e-02 -5.05648926e-03 -2.69200071e-03
      -1.70092494e-03 5.87806921e-04 4.79831069e-04 7.88650650e-04
      -1.66982772e-05 8.36146763e-04 7.72181258e-04 -3.54418671e-03
      5.57231891e-04 -1.58536935e-03 -3.02731351e-04 1.68687082e-03
      3.56764562e-04 -7.02507154e-04 -2.32436694e-04</_>
    <_>
      5.80989830e-02 1.68698989e-02 2.57496606e-03 9.07248323e-05
      1.06548890e-03 4.36091126e-04 4.08970081e-04 5.23576200e-05
      6.91380046e-05 6.78619544e-04 3.17121623e-04 1.47288752e-04
      -1.72264245e-03 -1.00121042e-03 -1.79713313e-03 4.38627030e-04
      -5.19945024e-05 1.14734590e-04 -1.10830285e-03</_>
    <_>
      5.82407825e-02 1.51464604e-02 1.05913477e-05 4.71606705e-04
      1.43832731e-04 3.30290262e-04 -1.26505748e-03 -2.21347786e-03
      -4.62935393e-04 -6.32199866e-04 1.75215115e-04 -6.21663989e-04
      -2.72672652e-04 3.93421715e-03 -2.79233139e-03 -8.68420932e-04
      9.43171268e-04 -7.41050229e-04 4.05547582e-03</_>
    <_>
      6.70551360e-02 3.14251892e-02 9.79759265e-03 -3.72597831e-03
      2.48343288e-03 4.52257023e-04 1.84799382e-03 2.71951663e-04
      -4.22249461e-04 -1.10028114e-03 -9.44778032e-04 -2.18609045e-03
      -4.17765026e-04 -6.88160770e-04 6.18776074e-04 -1.90748018e-03
      -1.07490423e-03 8.20977730e-04 -4.53263812e-04</_>
    <_>
      6.33842722e-02 2.86629908e-02 9.08714160e-03 -2.75106565e-03
      -5.63950452e-04 5.59900363e-04 -2.14996049e-04 9.28869355e-04
      1.66340906e-03 -1.40384072e-03 1.52585318e-03 3.62070481e-04
      3.37814476e-04 -2.56321137e-03 9.17275320e-04 2.33890139e-03
      7.50944426e-04 7.05717030e-05 8.81739601e-04</_>
    <_>
      6.18348904e-02 2.49023773e-02 6.27164962e-03 -9.37910809e-04
      -3.86105181e-04 -7.43612647e-04 -8.25181487e-04 6.66289634e-05
      -1.79104460e-03 -2.83763133e-04 5.57702842e-05 8.90840660e-04
      1.20948906e-04 -7.08841719e-04 1.61261787e-03 4.69608989e-04
      -7.98106834e-04 -3.50511749e-03 -9.51499213e-04</_></support_vectors>
  <decision_functions>
    <_>
      <sv_count>10</sv_count>
      <rho>9.1944952189161704e+00</rho>
      <alpha>
        6.8266644873577675e-01 1. 1. 1. 1. 5.1733368835490634e-01 1. 1.
        1. 1.</alpha></_></decision_functions></opencv_ml_svm>
</opencv_storage>
