<?xml version="1.0"?>
<opencv_storage>
<opencv_ml_svm>
  <format>3</format>
  <svmType>ONE_CLASS</svmType>
  <kernel>
    <type>RBF</type>
    <gamma>1.0000000149011612e-01</gamma></kernel>
  <nu>2.0000000298023224e-01</nu>
  <term_criteria><iterations>100</iterations></term_criteria>
  <var_count>23</var_count>
  <class_count>1</class_count>
  <sv_total>10</sv_total>
  <support_vectors>
    <_>
      -3.97701859e-02 1.36938505e-02 1.36205286e-03 -1.17044034e-03
      -3.37170181e-03 -1.23914913e-04 -3.03133973e-03 -4.00526857e-04
      1.83786347e-03 3.23430904e-05 -1.30506884e-03 1.01103238e-03
      2.00063782e-03 4.44581354e-04 1.06491789e-03 1.11845853e-04
      -7.98480702e-04 -3.78237783e-05 1.33140665e-03 5.56190556e-04
      -4.63183496e-05 -1.27875467e-03 6.07588561e-04</_>
    <_>
      -3.91584001e-02 1.20445248e-02 6.73618692e-04 -1.40296831e-03
      5.63861744e-04 -6.67003565e-04 6.43452280e-04 3.36116645e-03
      -9.70682246e-04 -7.87010067e-04 -3.94428498e-04 2.30764481e-03
      3.55421398e-05 -2.35763937e-03 1.27585675e-03 -1.03457354e-03
      -1.81673805e-03 8.43308575e-04 2.16493569e-03 2.57896469e-03
      -1.62621713e-04 1.54819235e-03 7.87082477e-04</_>
    <_>
      -3.94617170e-02 1.75705310e-02 7.03945232e-04 8.86895403e-04
      -1.43051438e-03 3.58524296e-04 -2.17692391e-03 -9.35006479e-04
      -4.32733999e-04 -3.41064762e-04 -7.96542517e-05 -1.00891420e-03
      -1.99693698e-03 -4.53402434e-04 -7.69936014e-04 -6.09810173e-04
      -1.76138012e-03 -1.31599500e-03 1.74672998e-04 -1.81523128e-03
      7.15547299e-04 1.07861042e-03 -2.85291244e-05</_>
    <_>
      -4.23016623e-02 1.70949623e-02 1.97915337e-03 -3.63079045e-04
      -1.61651138e-03 4.86674922e-04 -2.10947334e-03 8.58079409e-04
      -1.69639869e-04 -1.70755573e-03 2.16933456e-03 -5.27676195e-04
      -3.95906944e-04 5.83157700e-04 1.15457515e-03 7.51679399e-05
      6.45486405e-04 1.46295386e-03 -2.90559162e-03 2.02664873e-03
      3.49929993e-04 -1.15551542e-04 -8.28665216e-04</_>
    <_>
      -4.63916510e-02 3.14371511e-02 8.38127639e-03 -3.33867292e-03
      9.95620503e-04 3.16930865e-03 8.15053587e-04 -2.22803955e-03
      -2.18258263e-03 9.71016882e-04 -1.35876564e-03 -1.00483303e-03
      2.58240434e-05 -2.01326868e-04 -7.25999416e-05 -9.13819647e-04
      2.36570998e-03 7.27884646e-04 1.53888273e-03 2.61290872e-04
      3.79097532e-04 -2.52206257e-04 -5.28447388e-04</_>
    <_>
      5.01375496e-02 9.94000491e-03 1.40159333e-04 -3.64854961e-04
      1.30482414e-03 -2.22611683e-03 2.36289285e-04 -1.87482033e-03
      2.52404623e-03 -2.41500628e-03 -5.47678676e-04 -6.71757618e-04
      4.22358426e-04 -5.99671737e-04 -6.49092603e-04 -1.20468569e-04
      2.99281208e-03 -2.19938971e-04 -5.94012381e-04 2.44514260e-04
      -2.09531117e-05 -7.00688048e-04 5.26751624e-04</_>
    <_>
      6.46855310e-02 2.96037160e-02 -8.06799065e-03 -3.35726980e-03
      1.68024434e-03 1.43258052e-03 -8.30286241e-04 -7.48050166e-04
      1.03159202e-03 4.53808898e-04 -4.86878038e-04 -1.01918948e-03
      1.41642068e-03 -2.28116428e-03 1.21944153e-03 -5.92028628e-05
      -1.19019288e-03 3.27335729e-04 1.66464495e-04 -5.18105924e-04
      -1.68643589e-03 1.24803919e-03 1.04464736e-04</_>
    <_>
      5.72595559e-02 2.41471455e-02 -5.66790672e-03 -1.40610791e-03
      5.59046573e-04 -7.52467953e-04 1.63901912e-03 -1.57656160e-03
      -1.78105081e-04 -1.89133032e-04 -3.48592584e-04 3.67994304e-04
      -2.05085613e-03 2.35372747e-04 -1.13033326e-04 1.51701004e-03
      -5.91564865e-04 4.43647004e-04 -7.21157121e-04 -7.62202195e-04
      -3.06976697e-04 -1.91843705e-04 2.14142012e-04</_>
    <_>
      4.79034074e-02 3.13921762e-03 6.84013218e-03 3.30684916e-03
      -6.10121759e-04 1.03461568e-03 -1.60499156e-04 7.23115372e-05
      -2.22037736e-04 -8.63420428e-04 -7.77152949e-04 1.99628784e-03
      2.32274225e-03 -1.79741019e-03 1.96215260e-04 -1.58724375e-04
      -2.90681637e-04 4.77371825e-04 -1.79440028e-03 -9.62365826e-04
      -1.71518931e-03 -1.22407835e-03 -3.02161934e-04</_>
    <_>
      5.75489737e-02 2.27499139e-02 -5.95636759e-03 -4.92722401e-03
      -2.30455678e-03 -2.30874590e-04 -1.91470768e-04 2.37181969e-03
      -1.93020725e-03 5.83955552e-04 5.02963085e-05 8.44625931e-04
      -9.19960585e-05 1.86463201e-03 -1.38666481e-04 6.59362820e-04
      5.85316855e-04 -1.18884440e-04 2.22281041e-03 -2.68020580e-04
      9.50382091e-04 -1.74239324e-03 -1.17847754e-04</_></support_vectors>
  <decision_functions>
    <_>
      <sv_count>10</sv_count>
      <rho>9.1957507609761855e+00</rho>
      <alpha>
        1. 1. 7.4170387507881541e-01 1. 1. 4.5829626201186757e-01 1. 1.
        1. 1.</alpha></_></decision_functions></opencv_ml_svm>
</opencv_storage>
