<?xml version="1.0"?>
<opencv_storage>
<opencv_ml_svm>
  <format>3</format>
  <svmType>ONE_CLASS</svmType>
  <kernel>
    <type>RBF</type>
    <gamma>1.0000000149011612e-01</gamma></kernel>
  <nu>2.0000000298023224e-01</nu>
  <term_criteria><iterations>100</iterations></term_criteria>
  <var_count>25</var_count>
  <class_count>1</class_count>
  <sv_total>10</sv_total>
  <support_vectors>
    <_>
      -4.00772020e-02 1.81988832e-02 4.21212288e-03 3.64962942e-03
      -1.39026350e-04 7.85399228e-04 -1.51178928e-03 4.93947510e-03
      1.22136250e-03 2.14484590e-03 -6.90600486e-04 1.72310567e-03
      -5.51604258e-04 -7.92612322e-04 -5.34563907e-04 2.29500147e-04
      1.20074872e-03 -1.47856271e-03 -1.69837358e-03 -4.37520706e-04
      3.71037226e-04 6.50604023e-04 5.95310878e-04 -2.04099412e-03
      6.93429494e-04</_>
    <_>
      -3.71066369e-02 1.07531166e-02 7.72451807e-04 6.00035710e-04
      3.87198437e-04 1.40372373e-04 -2.39356465e-04 3.63582018e-04
      1.10497454e-03 7.58509676e-04 2.66872742e-03 -1.29461591e-03
      9.11285169e-04 3.20766470e-03 -2.04882887e-03 -1.27328304e-03
      -6.06226211e-04 -8.70240387e-04 -5.42696856e-04 -1.17889966e-03
      1.46494844e-04 -7.11512635e-04 6.07142516e-04 4.02887381e-04
      5.86972630e-04</_>
    <_>
      -4.14696820e-02 7.07345782e-03 -2.16176361e-03 -1.79202980e-04
      1.94686837e-03 4.80171439e-04 2.59294738e-05 -1.48976527e-04
      -1.30440679e-03 1.71747175e-03 -1.25200977e-03 2.78155645e-03
      -7.93108600e-04 7.09699161e-05 -3.53324285e-04 4.41924436e-04
      -7.27312814e-04 4.57498681e-04 4.13629645e-03 -7.64044584e-04
      1.08464167e-03 -7.37175142e-05 -8.42366950e-04 -3.94929899e-04
      3.30623006e-04</_>
    <_>
      -4.53004017e-02 2.17557847e-02 2.97021610e-03 1.08498230e-03
      -8.92210344e-04 2.63047172e-04 -7.36847578e-04 -2.61663715e-03
      1.07596756e-03 -2.02244078e-03 1.51796755e-03 1.13379757e-03
      3.95440526e-04 -2.48372927e-03 -7.78195041e-04 8.80366715e-05
      -6.77907665e-04 1.22956617e-03 -1.60777732e-03 1.02776173e-03
      -2.00617267e-03 -3.93280556e-04 -1.38150901e-03 -2.95942184e-04
      1.05215132e-03</_>
    <_>
      -3.81890237e-02 1.16717489e-02 3.06391437e-03 9.15265642e-04
      -5.18328379e-05 5.43424976e-04 -2.78816768e-03 -1.83389161e-03
      3.31023446e-04 -5.67769574e-04 -8.16691027e-04 -1.70130178e-03
      1.83797511e-03 4.30098531e-04 -1.76873489e-03 -1.55732257e-03
      1.44212600e-03 1.28468534e-03 -1.48333306e-03 1.67309784e-03
      9.30765469e-04 7.88111240e-04 -1.01439666e-03 3.27164569e-04
      -2.77612853e-04</_>
    <_>
      5.17734699e-02 1.54922986e-02 -1.47042051e-03 -3.33710085e-03
      -1.45074655e-03 -1.69948174e-03 1.25797011e-03 -3.72593495e-04
      6.56643315e-05 1.41611078e-03 -1.42447406e-03 1.25736580e-03
      7.30263127e-04 2.46136170e-03 -7.16420240e-04 1.27366802e-03
      2.83366226e-05 -6.93895563e-04 -2.79174768e-04 -1.06812874e-03
      -5.29984172e-05 -2.54157290e-04 -2.03908351e-03 -9.21072671e-04
      1.01034087e-03</_>
    <_>
      6.21945858e-02 3.08947247e-02 -8.45499244e-03 1.73781021e-03
      8.76682461e-04 2.74699705e-04 -8.90707539e-04 -1.16958097e-03
      -2.78088060e-04 -8.00564361e-04 -1.66735903e-03 -2.49920250e-03
      7.18838564e-05 -1.20353652e-03 5.14401880e-04 -3.09681258e-04
      -5.58185275e-04 -1.70519995e-03 5.87346090e-04 -1.31480425e-04
      5.55299339e-04 -3.39161744e-03 3.47714609e-04 8.69856915e-04
      -1.07082853e-03</_>
    <_>
      4.68381643e-02 1.02924714e-02 7.58139300e-04 -9.21860395e-04
      1.68269253e-04 2.72909016e-03 9.65681393e-04 1.43112789e-03
      -3.32571100e-03 1.17422931e-03 1.91426859e-03 7.27784587e-04
      -2.13305961e-04 -8.87486327e-04 3.80250684e-04 -6.39509119e-04
      1.74037041e-03 7.86338700e-04 1.57691087e-04 1.66911763e-04
      -9.55266005e-04 1.79504874e-04 -4.23600140e-04 -3.17713275e-05
      -6.88408909e-04</_>
    <_>
      5.87228015e-02 2.18488853e-02 -4.62297164e-03 1.53185066e-03
      -5.22283721e-04 -1.87040660e-05 -2.58899876e-04 -4.97079687e-04
      4.44374862e-04 -3.84725317e-05 9.15338926e-04 2.03806936e-04
      -3.07856340e-06 6.56950229e-04 -6.31450734e-04 -5.76943159e-04
      -1.62090393e-04 -7.40799180e-04 -1.60172029e-04 -4.66584082e-04
      9.59427445e-04 5.01506403e-03 1.53637855e-04 -4.30988584e-04
      -8.18946690e-04</_>
    <_>
      4.83843647e-02 1.09787853e-02 -7.70745391e-04 2.69230804e-03
      1.13402028e-03 -5.60461252e-04 7.82962423e-04 -1.11640187e-03
      3.36184981e-04 5.71272278e-04 2.27286550e-03 -5.48707729e-04
      -6.90084940e-04 -1.14262081e-03 3.33917851e-04 1.12225267e-03
      -3.43406660e-04 3.70896957e-03 -2.39259636e-04 -5.42393245e-04
      2.82183086e-04 7.70829269e-04 2.38261512e-03 -8.13391642e-04
      -5.16614411e-04</_></support_vectors>
  <decision_functions>
    <_>
      <sv_count>10</sv_count>
      <rho>9.1961297034729199e+00</rho>
      <alpha>
        1. 7.9433289961912501e-01 1. 1. 1. 1. 1. 4.0566723747155792e-01
        1. 1.</alpha></_></decision_functions></opencv_ml_svm>
</opencv_storage>
