<?xml version="1.0"?>
<opencv_storage>
<opencv_ml_svm>
  <format>3</format>
  <svmType>ONE_CLASS</svmType>
  <kernel>
    <type>RBF</type>
    <gamma>2.0000000298023224e-01</gamma></kernel>
  <nu>2.0000000298023224e-01</nu>
  <term_criteria><iterations>100</iterations></term_criteria>
  <var_count>20</var_count>
  <class_count>1</class_count>
  <sv_total>11</sv_total>
  <support_vectors>
    <_>
      -4.00440991e-02 1.68907072e-03 -4.91719227e-03 4.78216913e-03
      -3.12881824e-03 1.26901316e-03 -3.80694924e-04 -9.98641830e-04
      2.61505367e-04 -2.16866704e-03 -1.94169319e-04 -7.20531039e-04
      7.24614132e-04 -1.40731095e-03 7.03150523e-04 1.04840205e-03
      2.24939035e-03 8.15990861e-05 1.38628157e-03 -5.86719019e-04</_>
    <_>
      -5.02083674e-02 2.58764494e-02 5.93631668e-03 -1.77343737e-03
      -1.55536889e-03 -2.09814147e-03 -9.20741877e-04 -1.88493368e-03
      -7.23441772e-04 -1.35996775e-03 -2.13288399e-03 -6.96304953e-04
      4.61675634e-04 7.20229174e-04 2.77841871e-04 -1.09328923e-03
      -2.86797323e-04 -9.57004027e-04 -1.81970361e-03 2.14246917e-03</_>
    <_>
      -4.29783799e-02 1.19906943e-02 -7.31795299e-05 2.78445682e-03
      -1.66796031e-03 7.79184746e-04 2.57640542e-03 1.71461317e-03
      -1.64149038e-04 -1.84996548e-04 -2.69434508e-03 3.86003521e-04
      -2.26334523e-04 3.14470642e-04 8.39317741e-04 -7.31781591e-04
      1.72969920e-03 6.23310800e-04 8.95322999e-04 2.48642260e-04</_>
    <_>
      -4.77945358e-02 1.85294822e-02 2.84801261e-03 -4.39463370e-03
      1.51156576e-03 -8.84796493e-04 3.04969260e-03 -2.27726088e-03
      -8.45521048e-04 1.53128547e-03 1.56682241e-03 2.73762643e-03
      6.36418641e-04 6.15517260e-04 1.52150495e-03 1.79170142e-03
      1.05101871e-03 -3.67273082e-04 4.60881973e-04 -1.61762896e-03</_>
    <_>
      -5.12835830e-02 3.03803440e-02 7.06115784e-03 -1.59009406e-03
      4.35469148e-04 -7.66186684e-04 -2.37441203e-03 1.05913077e-03
      -6.53132156e-05 -2.45783315e-03 -4.39657451e-04 -5.02486597e-04
      -8.86959780e-04 9.52238770e-05 5.96327183e-04 -7.55447603e-04
      8.66176779e-05 -1.43049215e-03 -4.96133463e-04 -3.14956671e-03</_>
    <_>
      6.18962832e-02 1.79627780e-02 -2.96015060e-03 -3.21593136e-04
      -1.17705413e-03 -1.15067826e-03 1.58118244e-04 5.38500957e-04
      2.86714500e-03 1.66973026e-04 4.77578054e-04 -1.78960059e-03
      -5.58018452e-04 1.43040699e-04 9.29522677e-04 2.97726109e-03
      1.80898700e-04 -6.94813498e-04 -9.59870929e-04 4.88192134e-04</_>
    <_>
      7.22310618e-02 3.85406688e-02 -1.38081573e-02 -4.24458832e-03
      -2.52507743e-03 2.35487032e-03 -9.68697947e-04 -1.86441393e-04
      -2.89608957e-03 -8.41734145e-05 -2.09337682e-04 7.41665426e-04
      1.15192530e-03 -4.31522785e-04 -2.71659414e-03 -1.37598359e-03
      -8.97119695e-04 5.83270856e-04 1.44458213e-03 1.65557532e-04</_>
    <_>
      6.05462305e-02 1.20404437e-02 7.97673885e-04 2.18923716e-03
      1.66822190e-03 -1.73230493e-03 -1.84582503e-04 2.22518039e-03
      -1.07426145e-04 -1.37002452e-03 3.88931506e-03 1.47639005e-03
      3.70357680e-04 2.11315288e-04 -9.96727496e-04 1.04272534e-04
      8.31761630e-04 -2.37100967e-03 5.54403116e-04 1.36543787e-03</_>
    <_>
      4.93335389e-02 -7.20304158e-03 8.08036886e-03 -1.14404969e-03
      1.86796347e-03 7.95709784e-05 -9.82635189e-04 2.34473351e-04
      -1.11620000e-03 -5.12860315e-05 -1.03112136e-03 -1.54226233e-04
      6.88638247e-04 -9.78461467e-04 -7.08608131e-04 -9.47387423e-04
      6.48555404e-04 -8.84358305e-04 -4.66199243e-04 -5.17557666e-04</_>
    <_>
      6.69123530e-02 2.83763930e-02 -8.32301658e-03 2.38275738e-04
      7.30858475e-04 6.21563173e-04 2.31637066e-04 -4.62041877e-04
      6.71827584e-04 5.37693442e-04 -9.25136381e-04 3.41433391e-04
      -1.93378582e-04 -3.80888116e-04 4.09411453e-03 -4.68557439e-04
      -7.56662688e-04 6.33125834e-04 -2.65368959e-03 -4.90139246e-05</_>
    <_>
      5.82989193e-02 1.63656641e-02 -2.60965084e-03 1.72548485e-03
      1.42764580e-03 -1.53928369e-04 1.08624203e-03 1.50698947e-03
      1.76588190e-03 4.45305108e-04 -1.01150374e-03 -8.64176618e-05
      3.02269036e-04 -2.52108963e-04 -9.72272421e-04 2.32876395e-04
      5.29668541e-05 1.80898947e-04 1.16236333e-04 -1.80234827e-04</_></support_vectors>
  <decision_functions>
    <_>
      <sv_count>11</sv_count>
      <rho>9.1890833745310143e+00</rho>
      <alpha>
        1. 1. 7.3212196248274930e-01 1. 1. 1. 1. 1.
        8.2226453543378888e-02 1. 3.8565172106455514e-01</alpha></_></decision_functions></opencv_ml_svm>
</opencv_storage>
