<?xml version="1.0"?>
<opencv_storage>
<opencv_ml_svm>
  <format>3</format>
  <svmType>ONE_CLASS</svmType>
  <kernel>
    <type>RBF</type>
    <gamma>3.0000001192092896e-01</gamma></kernel>
  <nu>2.0000000298023224e-01</nu>
  <term_criteria><iterations>100</iterations></term_criteria>
  <var_count>24</var_count>
  <class_count>1</class_count>
  <sv_total>10</sv_total>
  <support_vectors>
    <_>
      -3.89348902e-02 3.01417150e-03 6.06841035e-03 -5.12825232e-03
      1.05019077e-03 -3.68922227e-03 -4.20315075e-04 6.06627495e-04
      2.19761161e-04 1.60618991e-04 -7.81617360e-04 1.95531975e-04
      -5.08374185e-04 -2.74077314e-03 7.82435003e-04 2.16998812e-03
      -1.46022451e-03 4.85319382e-04 -1.60871132e-03 1.02067098e-03
      1.27037973e-04 1.12251553e-03 -1.82877324e-04 5.52334008e-04</_>
    <_>
      -4.21151295e-02 1.74233019e-02 -3.04020126e-03 -1.40606819e-04
      -4.27520165e-04 1.92456006e-04 2.67871830e-04 -8.39538057e-04
      -5.30943566e-04 3.08240764e-03 7.97085231e-05 -2.19866823e-04
      1.40972625e-04 -5.98391460e-04 1.86071629e-04 -2.72863125e-03
      6.95224211e-04 -2.10686136e-04 5.84989670e-04 -8.20428133e-04
      1.43077946e-03 -6.09936309e-04 -9.79903853e-04 -9.62606573e-04</_>
    <_>
      -4.11361381e-02 1.10661993e-02 -6.03868917e-04 6.82798214e-04
      -2.84682354e-03 2.57332041e-03 2.97399038e-05 -2.84979556e-04
      -2.50900141e-03 -1.44360564e-03 2.13730644e-04 1.37710397e-03
      -1.81557413e-03 -2.23144802e-04 -2.13304977e-03 6.78715820e-04
      3.05608846e-04 -6.38474303e-04 -7.82372314e-04 2.18615911e-04
      -3.56430397e-03 -2.84161593e-04 -3.51813942e-05 -5.62296365e-04</_>
    <_>
      -4.39900607e-02 2.05409545e-02 -6.14226889e-03 4.07265266e-03
      5.49643592e-04 5.03412331e-04 -2.43721835e-04 4.67203179e-04
      1.67888659e-03 -1.38377480e-03 -1.71752239e-03 -3.10841308e-04
      -3.87751425e-05 4.43849858e-04 8.10807047e-04 2.91258009e-04
      2.10363884e-03 1.78534468e-03 4.16173454e-04 -7.70296087e-04
      4.09395521e-04 -5.03953470e-06 -1.71381311e-04 -1.32150983e-03</_>
    <_>
      -4.36545052e-02 1.67311709e-02 -3.40438611e-03 1.13083480e-03
      1.32396561e-03 5.25596435e-04 -1.77221280e-03 -7.54835026e-04
      -1.59120222e-03 -8.43494956e-04 -1.60062336e-03 -7.62810378e-05
      1.36754278e-03 4.75537381e-04 7.64595054e-04 -1.24350423e-03
      -3.54960328e-04 -1.81942421e-03 -3.40205705e-04 1.52328133e-03
      4.35551774e-04 -6.26536857e-05 -1.37032149e-03 6.24274369e-04</_>
    <_>
      4.88566235e-02 1.54941035e-02 1.59956189e-03 -1.54853601e-03
      2.38592344e-04 3.67562869e-03 1.07858854e-03 -2.01782095e-03
      4.87923593e-04 -5.39161090e-04 -2.35385542e-05 -1.97912357e-03
      -5.58338419e-04 -2.17663404e-03 -2.43424380e-04 -1.37054230e-04
      -6.08998816e-04 -3.85879364e-04 4.96663815e-05 -4.51719679e-04
      2.44498697e-05 2.11637220e-04 -1.45629956e-03 -2.45617353e-04</_>
    <_>
      6.42091483e-02 3.28896306e-02 7.78129231e-03 2.20710342e-03
      -2.57076393e-03 -1.94695243e-03 2.65820912e-04 -7.39782176e-04
      -1.25878816e-03 1.55618077e-03 8.50245124e-04 1.36846351e-03
      2.02578027e-03 5.52863115e-04 -4.08574822e-04 8.92043972e-05
      1.23179855e-03 1.20526052e-03 -6.86774612e-04 -4.31061664e-04
      -7.71433464e-04 1.31275994e-03 -1.15581276e-03 6.52497052e-04</_>
    <_>
      4.82916273e-02 1.06890518e-02 -2.24925843e-05 -2.06106319e-03
      -5.96554426e-04 2.84304982e-03 8.60962726e-04 1.98958907e-03
      1.04371551e-03 -1.84888180e-04 2.51747784e-04 2.53869337e-03
      -8.71000113e-04 1.57503341e-03 -1.34208904e-05 4.93888219e-04
      6.38893864e-04 1.55806413e-03 -1.80049299e-03 2.09277467e-04
      8.48072639e-04 -1.27753403e-04 1.95641012e-04 -8.78749357e-04</_>
    <_>
      5.13750203e-02 1.78712960e-02 4.20329999e-03 4.11822461e-03
      -4.10126027e-04 -1.83778838e-03 2.64702212e-05 2.99163657e-04
      3.16263962e-04 -5.31827100e-04 4.25198843e-04 -2.17574183e-03
      -4.18135838e-04 1.75582827e-04 -3.52628194e-05 -3.09393305e-04
      -6.96043309e-04 -2.87244772e-03 -4.43963305e-04 -6.59334037e-05
      -3.59950151e-04 2.89446703e-04 2.89423065e-03 -5.00947586e-04</_>
    <_>
      5.04283793e-02 1.86869893e-02 9.67965927e-04 2.66490591e-04
      9.98999458e-04 -1.57992914e-03 -3.25378496e-04 -3.26070789e-04
      4.79114417e-04 3.35518504e-04 -1.45132560e-03 -9.43909225e-04
      1.24868110e-03 1.25570549e-03 -4.26329300e-03 -7.52404681e-04
      -1.42844670e-04 -7.06499908e-04 -1.42990123e-03 -6.85140432e-04
      1.62794284e-04 -4.17766889e-04 2.51410984e-05 -1.28486528e-04</_></support_vectors>
  <decision_functions>
    <_>
      <sv_count>10</sv_count>
      <rho>9.1876684425604616e+00</rho>
      <alpha>
        1. 1. 7.9500623377369162e-01 1. 1. 1. 1. 4.0499390331699137e-01
        1. 1.</alpha></_></decision_functions></opencv_ml_svm>
</opencv_storage>
