<?xml version="1.0"?>
<opencv_storage>
<opencv_ml_svm>
  <format>3</format>
  <svmType>ONE_CLASS</svmType>
  <kernel>
    <type>RBF</type>
    <gamma>6.9999998807907104e-01</gamma></kernel>
  <nu>2.0000000298023224e-01</nu>
  <term_criteria><iterations>100</iterations></term_criteria>
  <var_count>17</var_count>
  <class_count>1</class_count>
  <sv_total>11</sv_total>
  <support_vectors>
    <_>
      -6.32462204e-02 3.97574157e-02 9.78334155e-03 -3.44530400e-03
      -3.64170555e-04 1.22276973e-03 -2.35217827e-04 8.72945995e-04
      1.12006417e-03 -4.37537441e-04 -8.50637502e-04 1.62590097e-03
      1.02121476e-03 1.28741155e-03 -1.33804313e-03 -4.61789459e-04
      -1.08439405e-03</_>
    <_>
      -4.85258698e-02 1.27526047e-02 -1.16562936e-03 2.65917904e-03
      -3.43043270e-04 -5.62972564e-04 -3.09984898e-03 -6.47451634e-06
      1.80323632e-03 2.40342109e-03 -1.18403544e-03 1.86078378e-03
      -4.04465682e-04 2.02733921e-04 -7.16223381e-04 -5.84009569e-04
      1.22790609e-03</_>
    <_>
      -5.52249104e-02 2.09508613e-02 1.17493013e-03 -1.16843346e-03
      1.33109256e-03 9.61633574e-04 1.37008482e-03 -1.29591068e-03
      4.88717516e-04 -1.12717789e-04 -1.42739830e-03 1.02173060e-03
      -1.21177567e-04 1.77113584e-03 1.14208879e-03 8.44065449e-04
      -8.50371958e-04</_>
    <_>
      -5.34508713e-02 2.57996731e-02 4.20038309e-03 -5.65616367e-03
      -2.59405165e-03 3.29659390e-03 1.60634285e-03 -1.15925686e-04
      -5.05767472e-04 3.20395542e-04 1.07429922e-03 -1.50862581e-03
      -6.23456390e-06 -1.46023626e-03 -1.13374018e-03 1.17041264e-03
      -1.36959052e-03</_>
    <_>
      -5.01816496e-02 2.15244573e-02 2.62943353e-03 1.44058617e-03
      6.17392710e-04 -4.02952399e-04 5.71625307e-04 -4.35644382e-04
      2.97932944e-04 -1.39814569e-03 1.67835475e-04 1.98553607e-04
      -1.50109734e-03 -4.46424063e-04 8.49424032e-05 -2.88326322e-04
      -8.71220895e-04</_>
    <_>
      7.23615754e-03 -2.71339640e-02 -1.86997605e-03 -2.76521407e-03
      1.69653795e-03 1.75948860e-03 1.79064600e-03 -1.69064908e-04
      -3.21490853e-03 1.78856042e-03 7.22010154e-04 3.00305150e-03
      -1.22893334e-03 -1.55229325e-04 1.19841541e-03 1.09319948e-03
      5.00902999e-04</_>
    <_>
      6.02655970e-02 1.94727704e-02 8.34123988e-04 1.70916028e-03
      -1.54043559e-03 -1.21983146e-06 7.43186567e-04 -1.74398336e-03
      4.39770656e-06 -1.02742820e-03 5.57262823e-03 -9.19538725e-04
      -3.50743248e-05 7.36774964e-05 1.37833809e-03 -3.04329762e-04
      -7.54648587e-04</_>
    <_>
      6.70883581e-02 4.21940126e-02 -1.15785226e-02 -2.50839535e-03
      6.05321082e-04 -3.03195848e-04 -1.72125746e-03 5.47620351e-04
      -4.04987259e-05 -6.59042125e-05 6.50443253e-04 -6.38457204e-05
      -1.75573688e-03 1.81674690e-03 -1.36555464e-04 -8.05754622e-04
      -1.62457043e-04</_>
    <_>
      5.35783581e-02 1.25537310e-02 3.37595586e-03 2.49196659e-03
      2.90644541e-03 1.33988564e-03 1.15339630e-04 -1.29185722e-03
      -8.26250936e-04 6.61077851e-04 -1.61592336e-03 1.34488009e-03
      1.05739839e-03 2.21276568e-04 -1.46240884e-04 -1.23041647e-03
      1.45445563e-04</_>
    <_>
      6.73591495e-02 4.28582206e-02 -1.28904805e-02 -3.24545079e-03
      -2.59392777e-06 -8.75031634e-04 1.28709374e-03 -8.74522491e-04
      1.96467576e-04 -9.42534825e-04 -1.73776119e-03 6.39150268e-04
      1.43187214e-03 1.07690529e-03 -5.65761875e-04 4.28628118e-04
      3.55928642e-04</_>
    <_>
      6.00864552e-02 2.89903246e-02 -7.57749844e-03 -1.05467858e-03
      -1.60087354e-03 -6.43725740e-04 -5.82476263e-04 -5.32887294e-04
      9.68513545e-04 2.01002974e-03 -7.77986250e-04 -4.18360927e-04
      -6.13236509e-04 -3.98225989e-03 3.90588364e-04 7.57953603e-05
      2.70369230e-04</_></support_vectors>
  <decision_functions>
    <_>
      <sv_count>11</sv_count>
      <rho>9.1585518308202705e+00</rho>
      <alpha>
        1. 4.4445004774167479e-01 1. 1. 1. 5.9001291610325779e-01 1. 1.
        1.6553717324575046e-01 1. 1.</alpha></_></decision_functions></opencv_ml_svm>
</opencv_storage>
